{0.178540,
-0.485114,
-0.072095,
-0.211595,
-0.349552,
-0.018332,
0.095781,
-0.894426,
0.281840,
0.136504,
0.591757,
0.239593,
-0.165035,
-0.390924,
-0.015549,
0.593797,
-0.029342,
0.001271,
-0.163694,
-0.041837,
-0.176908,
0.156048,
0.022741,
-0.035099,
0.421522,
0.765761,
-0.220785,
-0.049266,
0.515941,
-0.030862,
-0.019411,
-0.015449,
-0.039250,
-0.348077,
0.777934,
0.295284,
0.828638,
-0.030448,
0.366822,
0.422710,
-1.152221,
-0.552727,
-0.289075,
-0.568133,
-0.045909,
-0.061517,
-0.048505,
-0.042381,
-0.188274,
-0.045929,
0.371904,
-0.015149,
-0.936881,
-0.021393,
-0.642799,
-0.013813,
-0.007898,
-1.247317,
0.700493,
-0.473213,
0.601545,
-0.069466,
0.291586,
-0.649800,
0.834636,
0.043203,
-0.051757,
-0.077527,
-0.912959,
-0.097026,
-0.156981,
0.407899,
0.172134,
-0.791080,
-0.042412,
-0.030975,
-0.016521,
-0.129472,
-0.641559,
0.362160,
-0.562060,
-0.039132,
0.610807,
-0.632897,
0.424971,
-0.023249,
0.198421,
-0.103547,
-0.150143,
-0.041738,
-0.039755,
-0.274434,
-0.017206,
0.106913,
-0.037427,
-0.458658,
-0.885873,
-0.752296,
-0.857742,
-0.028304,
0.342418,
-0.052736,
-0.011630,
0.026111,
0.958705,
0.305726,
0.297022,
-0.024903,
-0.779710,
-0.195943,
0.579339,
-0.977172,
-0.043685,
-0.032727,
0.071474,
-0.020372,
0.479475,
-0.827870,
-0.778829,
-0.418780,
-0.019876,
-0.043413,
0.582517,
0.193049,
-0.050124,
0.177217,
-0.379313,
-0.041827,
}