#ifndef __CNNWeights_Layer2_H__
#define __CNNWeights_Layer2_H__

#define num_filters_layer2 64
#define kernel_size_layer2 3
#define num_channels_layer2 32
#define num_wt_elements_layer2 (num_filters_layer2 * kernel_size_layer2 * kernel_size_layer2 * num_channels_layer2)

const float Layer_2_Weights[num_wt_elements_layer2] = {-0.009114,-0.016753,-0.045058,
-0.060042,-0.043720,-0.051518,
0.014826,-0.029184,0.084315,

-0.048331,0.046310,-0.008800,
0.051564,-0.065209,0.074737,
0.055808,-0.060571,-0.023751,

0.002389,0.040670,0.032388,
-0.052771,-0.047865,-0.058515,
0.017499,0.034081,0.074659,

-0.065330,-0.044488,0.054044,
-0.061883,0.063753,-0.082572,
-0.045170,-0.031879,-0.005223,

0.013156,-0.049694,-0.076130,
-0.011882,0.012954,0.041582,
-0.044734,-0.014331,0.066076,

-0.049686,0.022698,-0.048734,
0.078345,0.004273,-0.026240,
0.041502,-0.047393,-0.069685,

0.049931,0.084852,0.042403,
0.057012,0.083615,-0.066551,
0.015953,0.032214,-0.029417,

0.061402,0.036426,0.038286,
-0.083697,0.046578,-0.027784,
0.061209,0.055105,-0.069143,

0.040484,-0.066338,-0.008510,
-0.043411,-0.078838,-0.054502,
0.020204,0.085332,0.056708,

0.050301,-0.013167,-0.010501,
-0.067338,-0.022818,0.018379,
-0.003051,-0.038445,-0.017540,

0.079434,-0.014565,0.018589,
-0.013563,0.029813,-0.013792,
0.009989,-0.049670,0.002512,

-0.042698,0.012266,-0.028490,
-0.037354,-0.050521,0.054826,
-0.073806,-0.035662,0.027509,

-0.060671,-0.073778,0.053635,
0.034675,-0.055847,0.077255,
0.021932,-0.039613,-0.047840,

0.033735,-0.049602,0.050478,
0.052199,-0.052861,0.016930,
0.042942,-0.047553,0.081931,

0.045392,0.002759,0.008311,
-0.057558,0.084329,-0.013877,
0.018772,-0.069457,-0.045070,

-0.074799,0.060724,0.003407,
-0.054337,0.000590,-0.083892,
-0.043327,0.019643,-0.047733,

-0.033251,0.071576,-0.076824,
0.026084,0.075992,-0.058274,
-0.016287,-0.001245,0.067423,

-0.034186,0.086271,-0.038636,
-0.022426,0.042485,-0.002503,
0.039770,0.081290,0.077493,

-0.075164,0.028884,-0.080216,
0.078934,-0.034042,0.074325,
0.026480,0.032577,-0.063428,

0.030704,-0.024279,-0.081911,
-0.041187,0.036688,-0.053192,
0.066711,0.070023,-0.035349,

-0.006318,-0.030433,-0.038841,
0.024034,0.061829,0.030468,
0.075644,0.085518,-0.065401,

0.016110,0.030567,0.055600,
0.045197,0.067747,-0.000754,
0.025779,0.042378,-0.070380,

0.079955,-0.005370,-0.058799,
0.077044,-0.027418,0.065507,
0.017692,-0.019478,0.036169,

0.023807,-0.008007,-0.047989,
0.023964,-0.025974,0.015541,
-0.036809,-0.059764,-0.044326,

-0.013710,0.061163,-0.080477,
-0.067492,0.070190,0.045221,
-0.030286,-0.005247,0.010200,

-0.025060,0.079466,-0.021519,
-0.015670,-0.085483,-0.067056,
0.024021,0.014414,0.037103,

-0.063503,0.007617,0.067259,
-0.012117,-0.057791,0.065771,
0.005840,0.036799,-0.067931,

0.082420,-0.037099,0.018690,
0.006396,-0.048420,-0.001417,
-0.056089,0.061530,-0.071151,

-0.012616,-0.025992,-0.059724,
-0.018788,-0.029699,0.039533,
0.014515,-0.007065,-0.033244,

0.073815,0.061672,0.033735,
0.020821,-0.043739,0.041923,
0.019578,-0.014226,0.021611,

0.079684,0.059200,0.010772,
0.009463,0.075855,-0.021143,
0.000958,0.060056,0.061081,

0.033336,0.031104,-0.066369,
0.072240,0.063956,-0.058347,
0.037200,0.034089,-0.057365,

-0.049199,-0.055082,-0.013148,
-0.076594,-0.028188,0.067098,
-0.026175,-0.026989,-0.068328,

0.053514,-0.077298,-0.015631,
-0.005479,0.063297,0.028038,
0.078527,0.070446,-0.077307,

0.032425,0.010034,0.008163,
-0.044533,-0.077927,-0.024813,
0.018050,-0.037983,-0.067195,

-0.031052,-0.030318,-0.070857,
0.037772,0.023017,0.039913,
-0.017258,-0.021224,0.035576,

0.022136,-0.017092,0.024880,
-0.050820,-0.050105,0.010926,
0.007503,0.010241,-0.080954,

-0.036588,-0.010166,0.055446,
-0.061633,-0.012104,0.042800,
-0.079044,-0.006881,-0.006551,

-0.037612,-0.020812,-0.061227,
-0.024915,-0.083536,-0.042558,
-0.058041,0.046553,0.029135,

-0.047894,0.006590,-0.073353,
-0.025656,-0.033917,-0.033311,
0.063862,-0.068300,-0.065353,

0.033824,-0.080963,0.037851,
-0.018115,-0.045553,-0.013801,
0.016296,-0.055005,0.057219,

-0.016944,-0.004917,-0.065638,
0.011703,-0.049150,-0.073054,
0.039161,-0.012588,-0.018578,

-0.024231,0.067957,-0.074762,
0.045171,-0.022370,-0.027094,
-0.050035,-0.018539,0.014425,

-0.008876,-0.078087,0.079899,
0.076567,-0.044419,0.044911,
-0.075294,-0.043726,-0.018340,

-0.015955,-0.067663,0.068348,
0.064056,-0.072693,0.018169,
-0.076587,-0.038053,-0.012279,

-0.081801,-0.066102,0.013283,
0.063828,0.023405,-0.048007,
0.040610,0.052337,0.034745,

0.026863,0.020650,0.057739,
0.010045,-0.061154,-0.036144,
0.042288,0.071408,0.052544,

0.013127,0.066697,-0.035206,
-0.035751,0.067175,0.085001,
0.000519,0.081464,-0.052069,

0.000994,-0.039727,-0.046138,
-0.078798,-0.055199,0.044129,
-0.023250,-0.023675,0.021916,

0.000991,-0.057689,0.064064,
0.029017,-0.013319,-0.075957,
0.004149,0.004431,0.062789,

0.068173,0.014948,-0.063212,
0.035577,-0.013153,0.066879,
-0.048614,-0.036400,-0.068531,

-0.057015,-0.028755,0.076506,
0.010572,-0.069820,0.063668,
0.010979,-0.063381,0.059787,

-0.014176,-0.054321,-0.035726,
-0.085082,0.005236,-0.021519,
0.022953,-0.029293,-0.001898,

0.030589,0.049639,-0.048191,
-0.072877,0.057629,-0.039492,
0.056479,0.009752,-0.040499,

-0.049465,-0.061970,-0.069212,
0.019728,-0.019480,0.068057,
0.000853,-0.080560,0.060385,

0.039447,-0.010754,-0.007786,
-0.047826,0.006231,-0.030797,
0.024401,-0.058124,0.006570,

-0.019634,0.011983,-0.048499,
0.029501,0.006803,0.048553,
0.070972,0.059194,0.048560,

-0.018801,-0.030167,0.043124,
-0.060570,-0.031962,-0.074225,
-0.061589,0.072850,-0.019925,

-0.059773,0.016685,0.042685,
0.026446,-0.001574,-0.065667,
0.072259,-0.042004,-0.047945,

-0.035844,-0.042089,0.048538,
-0.042945,-0.041570,-0.032211,
0.018052,-0.051372,-0.031678,

-0.060073,0.039177,0.017288,
-0.086359,-0.014012,-0.007000,
-0.034397,-0.034735,0.044160,

0.045900,0.016546,-0.001472,
0.062684,0.060552,-0.066117,
0.033433,0.077481,0.020536,

-0.053351,0.012946,-0.060091,
0.072968,0.003968,-0.024112,
0.019286,-0.013839,0.043465,

0.024776,0.068893,0.072420,
-0.066884,0.039359,-0.011186,
-0.034611,-0.037114,-0.062326,

0.041063,0.006821,-0.033833,
0.067713,0.016475,-0.051477,
-0.043703,-0.032148,-0.051958,

-0.001024,0.084816,-0.076184,
0.026536,0.006032,0.039927,
0.013844,0.015069,-0.079538,

-0.016162,-0.049622,0.029746,
-0.034796,0.082272,0.011295,
-0.029324,0.013574,-0.080122,

-0.064564,0.064185,-0.073685,
-0.003975,0.056532,0.008750,
0.075746,0.009230,-0.044955,

0.003683,0.033278,0.058863,
0.065618,0.034787,0.052200,
0.043175,-0.027018,0.059934,

0.032091,-0.059802,-0.041924,
0.008273,-0.074985,0.003663,
0.064501,-0.013175,-0.051174,

0.068097,-0.052360,0.053286,
0.062903,-0.077879,0.076623,
0.011351,-0.011789,0.015013,

-0.000702,-0.033103,0.082755,
-0.036401,-0.048960,-0.068202,
0.047205,0.024720,0.083193,

0.044621,0.028116,-0.056570,
-0.077579,0.082027,0.032534,
0.037749,0.031471,0.017464,

0.051933,-0.070136,0.065078,
-0.047110,0.017828,0.040288,
-0.035176,0.070911,-0.055015,

0.083724,0.081391,0.053881,
-0.036187,-0.046747,-0.062005,
0.080081,0.029481,0.052021,

0.026041,0.009451,0.009681,
0.034283,0.036716,0.077050,
0.044484,0.001731,0.056761,

-0.026401,0.067900,-0.078913,
0.075949,0.050846,0.018355,
-0.071522,0.046635,-0.015817,

0.080714,0.017470,0.059021,
0.023244,0.082990,-0.047129,
0.084746,0.049807,0.065164,

0.050847,0.078474,-0.024484,
0.014979,-0.037196,-0.066417,
-0.070408,-0.074800,0.027855,

0.049327,0.010301,0.001226,
-0.058335,0.034507,0.071387,
0.072867,0.045544,0.051384,

0.077332,0.032268,0.012578,
0.012686,-0.041027,-0.011339,
-0.047037,-0.067468,-0.040965,

-0.036577,-0.032823,0.029316,
0.083985,-0.057430,-0.052513,
0.010729,-0.066169,-0.043543,

0.054793,0.011737,0.069944,
0.056006,-0.035205,0.084056,
-0.048022,0.082553,-0.071286,

-0.058348,0.026875,-0.063968,
-0.034950,0.007994,0.059499,
-0.043004,-0.053048,0.080192,

0.041855,0.084572,0.023729,
0.026667,0.006065,-0.062935,
0.013504,0.069377,0.029257,

0.061488,-0.026630,-0.059864,
0.052112,-0.061112,0.006898,
0.066775,0.028361,-0.078057,

-0.065484,0.064933,-0.003593,
0.084171,0.020137,0.083617,
-0.007153,-0.034124,0.011437,

0.045696,0.067585,-0.076396,
-0.066016,-0.047512,0.049146,
-0.045488,-0.044806,0.054948,

-0.055311,-0.002248,-0.082083,
-0.024057,0.067049,0.046936,
0.077860,-0.069110,-0.022161,

-0.000871,-0.079388,-0.074785,
0.025153,-0.005421,0.009655,
-0.017641,-0.002963,0.047627,

-0.067516,0.025292,0.074171,
-0.073779,0.054696,-0.061954,
0.042006,0.062936,0.070516,

-0.034481,-0.007073,0.013451,
-0.077719,-0.022893,0.006307,
-0.030872,0.003554,0.026269,

0.016447,0.008904,-0.067090,
-0.048410,-0.057801,0.016063,
-0.075551,0.043755,-0.051622,

-0.074660,-0.003741,0.057571,
0.080980,0.068131,-0.020571,
-0.027514,0.044659,0.017063,

-0.073222,-0.052020,0.074716,
0.079221,0.047360,-0.010887,
-0.007143,0.039111,0.047513,

-0.027822,-0.052501,0.074550,
-0.055088,0.048689,-0.006994,
-0.046125,0.015108,0.077801,

0.068343,0.053543,-0.015499,
-0.042617,-0.040435,0.064704,
-0.075990,0.083734,0.073547,

-0.072849,0.069629,0.053204,
0.032718,0.058173,0.025927,
-0.011254,0.076290,0.070946,

-0.078558,0.020846,0.032395,
0.002358,0.044064,0.001672,
0.022456,0.012372,0.034484,

-0.031686,-0.015458,0.038298,
-0.031212,0.018631,0.045303,
0.009909,0.033625,0.040048,

-0.024347,-0.028785,-0.006994,
-0.014938,-0.058512,-0.013363,
0.077772,-0.041251,-0.068583,

0.000209,-0.051211,0.056129,
-0.057830,0.062006,0.002670,
-0.080158,-0.056128,-0.075898,

-0.054862,0.055814,-0.013316,
0.081499,-0.076574,-0.073352,
0.000361,-0.033307,0.032474,

-0.055130,0.066153,-0.064847,
-0.078967,0.053603,-0.022029,
-0.024142,-0.054878,-0.022980,

-0.039863,0.031332,-0.072625,
-0.044753,0.035178,0.048836,
0.009865,-0.010263,0.017331,

-0.073527,0.033768,0.048458,
0.037073,0.072192,0.038851,
0.050246,0.026040,-0.050544,

0.033688,-0.032078,0.034518,
0.045534,0.020639,-0.059466,
0.017956,0.056149,-0.005984,

-0.021930,-0.074036,-0.060116,
-0.070356,0.084009,-0.054596,
-0.063793,-0.055768,0.050817,

-0.039986,-0.071360,0.051078,
-0.005149,0.046745,0.002354,
0.030152,-0.001095,-0.037005,

0.034225,0.000650,0.055215,
-0.011779,0.053198,-0.019814,
-0.038456,-0.068117,-0.076124,

0.037924,-0.016118,0.079293,
0.037258,-0.051823,-0.016133,
-0.000358,0.020190,-0.073113,

0.044229,0.062457,-0.051677,
-0.077083,-0.000095,-0.038556,
-0.003260,0.007172,0.018513,

-0.027878,-0.074815,-0.080387,
-0.040429,-0.009994,-0.071474,
0.055703,-0.066553,-0.077049,

0.046741,-0.026423,-0.036787,
0.019427,0.016314,-0.016149,
-0.028780,-0.000497,0.054111,

-0.017220,-0.036462,0.076151,
-0.066781,-0.008758,0.075741,
-0.040774,0.014205,0.004385,

0.075994,0.008920,-0.037264,
-0.064985,-0.011781,-0.050745,
-0.046106,-0.010644,-0.084814,

0.059767,0.006201,-0.068166,
0.000528,-0.071276,-0.075438,
-0.063305,0.041031,0.046594,

0.070765,-0.074662,0.034075,
-0.020255,0.013513,-0.081969,
0.069375,0.079917,0.006138,

0.015314,-0.047317,0.073019,
-0.053372,0.066969,0.005706,
-0.075682,-0.004942,-0.049150,

0.024956,0.062919,0.026758,
0.046455,-0.025128,-0.031563,
0.084127,0.058547,-0.034456,

-0.070316,-0.018282,0.069548,
-0.033155,0.052977,-0.055303,
-0.055354,0.058185,0.027683,

-0.039857,-0.035442,0.041649,
0.027951,0.017637,-0.027297,
-0.021870,-0.026045,-0.036631,

0.051304,0.030326,0.055680,
-0.076758,-0.064804,0.016044,
-0.077150,0.041297,-0.035701,

-0.028962,0.020487,0.065803,
-0.057601,-0.047185,-0.073889,
-0.021980,-0.055675,-0.003111,

-0.039887,-0.028005,0.076493,
0.056534,-0.041949,0.030671,
-0.019229,0.055934,-0.007079,

-0.005563,0.071246,-0.001369,
0.037245,-0.026249,-0.042450,
-0.053493,-0.006543,0.078826,

-0.030883,-0.002478,0.055779,
-0.053927,0.072655,0.011671,
-0.045137,-0.050737,0.016970,

0.040759,0.058903,0.040428,
0.076855,0.068040,-0.042293,
0.067591,0.070582,0.019901,

0.006281,0.044120,0.086138,
-0.017906,0.049405,-0.064018,
0.046364,-0.063368,-0.026645,

0.078961,-0.047149,-0.007438,
-0.041204,0.039402,0.011247,
-0.023121,-0.015520,0.017149,

-0.040822,-0.061915,0.027351,
0.072327,-0.008430,0.085243,
0.063566,0.070125,-0.060868,

-0.057308,0.071279,-0.040784,
-0.002437,-0.031962,0.053085,
0.069544,0.041886,-0.057395,

-0.063765,-0.062011,0.018289,
-0.043869,-0.057103,0.065257,
-0.054711,-0.049798,-0.051252,

0.041150,0.042173,0.012141,
-0.053004,-0.033282,-0.057713,
0.006414,-0.056770,-0.033063,

0.049438,-0.074166,-0.013464,
-0.050309,0.026108,0.031377,
0.040674,0.077436,-0.026310,

-0.063068,-0.015812,-0.042692,
0.047976,0.027504,0.058820,
0.035983,-0.070452,0.055261,

-0.040972,0.066374,0.029530,
0.075120,-0.059761,0.046334,
0.057751,-0.041527,-0.055115,

-0.029919,-0.049927,0.079192,
-0.051028,-0.011096,-0.050104,
-0.028264,-0.069694,0.074826,

0.000766,-0.013030,-0.073942,
0.012842,-0.026027,-0.016155,
0.032098,0.030185,0.044144,

0.085846,0.056605,0.061069,
0.082941,0.036497,-0.021620,
-0.068407,0.012988,0.047061,

0.070440,0.039619,-0.076753,
0.047187,-0.054397,-0.004327,
0.072012,0.023676,0.084473,

0.074696,0.022225,0.050862,
-0.050005,-0.031693,-0.067978,
0.037531,0.023293,0.031931,

-0.039246,-0.021085,0.012316,
-0.016304,0.001306,0.075717,
-0.038315,-0.047525,-0.079394,

-0.032592,0.068699,0.068254,
-0.076330,-0.051737,-0.078380,
-0.065570,0.003962,0.063171,

0.072805,-0.000480,-0.067216,
-0.000377,-0.008688,0.059597,
-0.052826,-0.048556,0.080099,

0.025261,0.043785,-0.021730,
-0.007397,0.069268,0.023107,
-0.044589,0.047027,0.010391,

-0.017381,-0.035337,0.064799,
0.078402,-0.057149,-0.008070,
-0.071045,-0.037738,0.066470,

-0.052545,0.018696,-0.075221,
0.031045,-0.049794,0.022033,
-0.079124,0.019913,0.032083,

0.025405,0.041916,-0.074388,
0.071509,0.031762,0.017281,
0.007356,0.015198,0.031992,

0.056284,-0.042444,-0.025391,
-0.051630,-0.056446,-0.046305,
-0.001834,-0.065020,0.044407,

0.009165,0.080424,-0.072012,
0.022695,-0.065504,-0.035041,
0.036090,0.041349,-0.039230,

0.064686,0.029993,0.038600,
0.053553,0.017758,0.077389,
-0.000544,0.064395,-0.036226,

0.082817,-0.010897,-0.044011,
-0.054652,-0.000213,-0.030232,
0.004497,-0.037622,0.069684,

-0.004311,-0.035922,-0.048554,
-0.030960,0.011792,0.004526,
0.004327,0.030792,0.050225,

0.085884,-0.056013,-0.080121,
-0.003210,0.053843,-0.071473,
0.021320,-0.065063,0.032902,

0.025352,-0.017828,0.018739,
-0.063481,-0.027772,-0.064423,
0.044502,-0.050048,0.006091,

-0.051434,-0.010327,-0.041934,
-0.068669,0.083159,-0.068042,
0.028736,0.082054,-0.044529,

-0.032987,-0.042642,0.006434,
-0.050815,-0.046195,0.016101,
-0.066836,0.039092,0.018000,

-0.035302,-0.011198,0.035974,
-0.047809,-0.057259,0.063065,
-0.010628,-0.056440,-0.045207,

-0.006020,0.053572,0.031805,
-0.068962,0.081967,0.019198,
0.072918,-0.043336,-0.063839,

-0.082931,0.020851,-0.069004,
0.027027,-0.020592,0.037683,
0.076085,-0.016432,0.037477,

0.019982,-0.043120,0.007563,
0.064827,-0.031160,-0.006313,
-0.076795,0.023508,0.042214,

-0.073102,0.071112,-0.000127,
-0.060706,0.048881,-0.052419,
-0.010623,0.008338,0.061360,

0.003504,0.027757,-0.084072,
0.010428,0.077131,-0.043299,
0.007246,-0.024996,-0.021739,

-0.061268,0.072113,-0.053484,
-0.003871,-0.072238,0.031310,
0.044848,-0.014066,0.001615,

-0.022202,0.070217,-0.063443,
0.039952,-0.013378,-0.024977,
-0.037524,0.003550,0.012345,

-0.070977,0.056409,-0.077282,
0.075743,0.046719,-0.036760,
0.073340,-0.064233,-0.050562,

-0.002178,0.033890,0.044230,
-0.068531,-0.062802,0.010690,
-0.068519,0.034984,-0.008897,

0.063083,-0.024406,0.014539,
0.036417,0.015959,-0.057331,
0.026700,0.073526,0.028530,

0.078305,-0.022752,-0.079407,
-0.015084,-0.064551,0.074497,
0.027970,-0.041755,-0.045718,

-0.041613,0.047943,0.022889,
-0.006789,-0.029699,0.003937,
-0.027501,-0.034649,0.047273,

-0.039965,-0.023678,-0.013322,
0.036531,0.065874,0.020726,
-0.007999,-0.032004,0.029627,

-0.073325,-0.035782,-0.065028,
-0.026121,0.029290,-0.060348,
-0.003258,-0.043553,0.011810,

-0.066113,0.012991,-0.072183,
-0.073801,-0.063476,-0.084938,
-0.018740,0.023030,0.005384,

-0.075622,0.032827,-0.035016,
-0.012247,0.072937,0.027571,
0.000258,-0.051744,-0.080757,

-0.065630,0.044055,0.075186,
-0.007872,0.003034,0.057368,
0.064692,-0.031330,-0.023392,

-0.035405,-0.050358,0.036519,
0.072959,-0.005952,0.000448,
-0.011496,0.024925,-0.060731,

-0.012723,0.014426,0.070344,
0.047884,-0.020687,-0.081201,
0.063546,0.038611,-0.016396,

0.067917,0.046320,-0.066671,
0.060429,0.037874,-0.075968,
-0.060957,-0.043999,0.030700,

0.044862,0.034749,0.060376,
-0.024249,0.024843,0.045694,
-0.083204,0.029705,0.029070,

0.027252,-0.080819,-0.079331,
0.003096,-0.053301,0.012046,
-0.043104,-0.066661,-0.029955,

0.072831,0.049132,0.014451,
-0.012317,0.046504,-0.028269,
-0.052634,0.000075,-0.071992,

-0.015985,0.043871,0.042959,
0.074258,-0.053756,-0.020155,
0.059743,0.008134,0.049762,

-0.028834,-0.002214,0.036959,
-0.064381,0.050849,-0.031805,
0.075670,0.078671,-0.076982,

0.061471,-0.001494,0.075969,
-0.039393,-0.036399,-0.045418,
0.049795,0.046075,0.008163,

-0.048666,-0.008383,-0.049158,
0.027881,0.073986,-0.008161,
0.054476,-0.081771,-0.046039,

-0.007190,0.018112,-0.052222,
0.067254,-0.018090,0.033575,
-0.009956,-0.049859,0.060785,

0.056689,0.069169,0.023775,
-0.005836,-0.056934,-0.044000,
0.020255,0.063311,-0.053866,

-0.032246,0.077861,0.045605,
0.078371,0.002472,0.020004,
-0.049912,0.061037,0.046136,

-0.074547,0.008699,0.038238,
0.060844,0.011023,-0.009442,
-0.066950,-0.068458,0.078139,

0.028415,-0.039402,0.025957,
0.078498,0.054437,0.066387,
0.075208,-0.041414,0.003833,

0.028586,-0.055160,0.054947,
0.067731,-0.085422,-0.035331,
-0.021788,0.053124,0.052392,

-0.051640,0.004060,0.048891,
-0.025659,0.083003,0.006361,
-0.028843,0.030396,-0.061674,

0.058029,0.042107,0.078523,
-0.023865,0.038956,0.068635,
0.025031,0.000295,0.022971,

0.086219,-0.041386,0.072922,
0.035070,-0.008491,-0.004066,
0.067347,-0.027654,0.002632,

0.082117,0.067598,-0.053801,
0.003895,0.072002,-0.003190,
-0.059911,-0.081172,0.036326,

-0.026478,-0.071003,0.027611,
-0.016754,0.031058,0.042452,
0.018017,0.083847,0.031865,

0.047677,0.018470,-0.052478,
-0.063990,-0.051700,-0.054717,
-0.072964,0.056530,-0.001142,

0.047664,0.049293,0.028195,
-0.045978,-0.010850,-0.042800,
-0.050959,-0.065020,-0.055070,

0.082012,0.014986,-0.007676,
-0.014081,0.062244,-0.048902,
-0.041900,0.052232,0.004673,

-0.044871,0.040158,0.020596,
0.041287,0.067379,-0.044372,
-0.007045,-0.058143,0.050825,

0.036163,-0.053707,-0.043446,
-0.058142,-0.039451,-0.074548,
0.039230,0.009778,0.065783,

-0.079724,-0.055675,0.019196,
0.074647,0.045860,0.081537,
0.057397,0.046270,-0.018410,

0.075768,0.017928,-0.014890,
0.068232,-0.072946,-0.023241,
-0.041271,0.038391,0.057647,

0.085708,-0.036925,0.007121,
-0.060357,0.054598,0.048117,
0.056697,-0.021084,-0.006683,

-0.045763,-0.035065,-0.076226,
0.013035,-0.008642,0.069179,
0.004081,0.086388,0.002967,

0.075584,0.075165,0.012575,
0.015138,-0.059077,-0.071773,
0.011924,0.072663,0.065246,

0.050593,0.026250,0.033004,
0.042323,-0.042143,0.052851,
0.067691,-0.006008,-0.075157,

0.008490,0.070137,-0.061199,
0.073023,0.042915,0.073680,
-0.074262,-0.012057,0.002436,

0.074163,0.059634,0.011130,
0.080174,0.034272,0.071053,
0.018231,-0.051670,-0.023445,

-0.031922,0.059469,0.033179,
0.042475,0.034897,0.007359,
-0.014411,-0.021101,0.044859,

-0.068377,0.012406,0.055319,
-0.019550,0.012358,0.021449,
0.040632,0.030689,0.052145,

0.054799,0.074903,-0.067610,
-0.025351,0.043054,0.026336,
-0.001405,-0.004858,-0.002394,

-0.047581,-0.081496,-0.022806,
-0.024438,-0.076983,0.003465,
-0.003971,0.061495,-0.041145,

-0.060038,-0.013142,-0.009102,
-0.043785,-0.043009,0.060430,
0.084073,0.014606,-0.014558,

-0.032141,0.022417,-0.059324,
0.027325,-0.031764,0.065465,
0.076969,-0.073482,-0.012049,

-0.065126,0.054839,-0.032861,
0.082727,-0.049013,0.074310,
0.070552,-0.013855,-0.021776,

0.028063,-0.051283,-0.026693,
0.046062,0.068671,-0.009461,
-0.049028,0.056131,0.022128,

-0.026605,0.007683,0.073387,
-0.036797,0.073696,-0.023647,
0.082901,0.051665,0.050213,

0.072062,-0.009512,-0.078593,
0.068309,0.084101,-0.006223,
0.045093,-0.034406,0.037387,

-0.023433,0.052931,0.027360,
0.008783,0.047896,-0.012558,
-0.005801,-0.008871,0.084140,

0.061347,0.066760,0.046445,
0.022290,0.052972,0.063702,
-0.038615,0.001349,0.079917,

0.060974,-0.047453,-0.075467,
-0.074256,-0.019177,-0.030226,
0.001600,0.070186,-0.059323,

-0.021652,0.032553,0.013358,
-0.035916,-0.063969,-0.018680,
-0.064344,-0.015478,0.067399,

0.049587,-0.081851,-0.042897,
-0.022494,-0.083071,-0.037095,
-0.067312,-0.035216,0.058908,

-0.023121,-0.029441,0.006899,
-0.058326,-0.014140,-0.051504,
-0.053205,0.011188,-0.021012,

-0.008855,0.052714,0.034856,
-0.031898,-0.049357,0.058535,
0.000100,-0.027295,0.076005,

-0.040153,-0.026313,0.043520,
-0.071911,-0.064943,0.009131,
0.049685,0.073302,-0.042341,

-0.078986,0.050110,0.073059,
0.038231,-0.064394,0.008429,
-0.037592,0.062656,-0.010803,

-0.045484,-0.071011,-0.018274,
0.038604,-0.060801,0.033724,
0.055063,-0.007595,-0.045010,

-0.034874,0.077659,-0.065844,
-0.063796,0.008095,0.012268,
-0.037118,-0.002717,-0.058302,

0.031022,-0.008657,-0.071104,
-0.008336,-0.006596,-0.079632,
0.041554,0.046562,-0.080960,

0.041611,-0.072847,0.058670,
-0.079441,-0.002878,-0.053926,
-0.054242,-0.025393,-0.050018,

0.086184,-0.071554,-0.000471,
-0.060968,0.020647,0.047609,
-0.078898,-0.041484,-0.076477,

0.006803,0.061642,0.055259,
-0.019553,-0.050266,0.023488,
0.062596,-0.035058,-0.003879,

-0.027188,-0.040983,0.018741,
-0.014104,-0.026278,-0.030744,
0.023444,-0.071943,-0.071338,

-0.077316,0.002059,-0.028690,
-0.014071,-0.068698,0.070425,
-0.079612,0.036602,-0.001259,

-0.065316,0.020275,0.055030,
0.001136,0.065144,-0.001401,
-0.065312,0.016875,-0.004407,

0.046119,0.048721,0.022453,
-0.065918,0.009873,0.072688,
-0.014871,-0.017198,0.053217,

-0.076182,0.025667,-0.012319,
0.023346,-0.050927,0.020168,
0.069002,-0.031884,0.046606,

0.050254,0.077153,0.045621,
0.080158,0.002746,-0.004029,
-0.047208,0.071348,0.061513,

-0.015819,-0.047566,0.049471,
0.079577,0.052650,-0.000903,
-0.028750,0.058830,-0.024814,

-0.040550,0.069836,-0.077075,
-0.026528,0.002294,-0.031611,
-0.048133,-0.079159,-0.000034,

0.022708,0.066866,-0.005219,
-0.053154,-0.070078,-0.016129,
-0.080447,-0.045417,-0.018775,

0.071990,0.082626,-0.030206,
-0.046845,-0.042624,-0.071078,
0.045401,-0.076921,-0.043659,

-0.016561,0.060656,0.061229,
-0.071404,0.034546,0.047274,
-0.011090,0.035659,-0.083843,

-0.024103,0.074728,0.026623,
-0.047338,-0.073391,0.054597,
-0.050104,0.029685,-0.031506,

-0.049729,0.040498,-0.007795,
-0.035314,0.034162,-0.002138,
0.011185,0.066447,-0.030963,

0.078012,-0.058273,-0.009022,
0.015975,0.033421,-0.025362,
0.022894,0.035797,0.053677,

-0.059454,0.031979,0.021565,
-0.040977,0.061140,0.053972,
0.048529,0.069371,-0.045118,

-0.009353,-0.025234,-0.033161,
-0.046688,-0.049293,0.042254,
-0.016671,-0.003055,-0.020246,

-0.072787,-0.042740,-0.062798,
0.068975,-0.054713,0.044928,
0.022714,0.018095,0.011886,

-0.000399,-0.052016,-0.021307,
-0.031131,-0.019354,-0.017317,
0.054880,0.036999,-0.052052,

-0.017300,-0.027531,-0.058355,
-0.078023,0.046144,-0.016522,
0.031814,-0.042548,0.077740,

0.027801,-0.023116,0.075008,
0.060544,-0.068507,-0.067174,
-0.058747,0.058055,-0.052579,

-0.055159,0.059707,-0.015863,
-0.039326,0.046267,0.065831,
0.032801,0.044279,-0.012033,

0.062332,-0.069338,0.019598,
0.024154,-0.045950,-0.078336,
0.049645,-0.019577,0.000101,

0.041247,-0.039461,0.066802,
-0.015771,-0.003731,0.009119,
-0.022447,0.047013,-0.025493,

-0.039123,-0.047603,-0.060321,
-0.056545,0.006184,-0.044875,
-0.047501,0.066564,-0.080243,

0.052647,-0.045095,0.047500,
-0.032153,-0.040037,-0.004726,
0.010328,-0.051301,0.032150,

0.050639,0.034310,0.025915,
0.022092,0.064195,-0.021034,
0.075566,-0.024947,-0.027189,

-0.035613,-0.043175,0.075946,
0.009060,0.080655,0.002459,
0.067227,-0.006932,-0.018878,

-0.063930,-0.038122,0.021400,
-0.032641,-0.074172,0.034460,
-0.067801,0.076935,-0.066623,

0.027478,0.062713,-0.054896,
0.037462,-0.048134,0.018148,
-0.036516,-0.001039,-0.055011,

0.008434,-0.019880,0.021439,
0.069046,-0.028845,0.014558,
0.050465,0.065582,0.048140,

0.056418,0.057012,0.062857,
-0.063012,-0.075067,-0.001624,
-0.051067,-0.077575,-0.000396,

-0.060842,-0.051570,-0.039440,
0.042811,0.059602,0.026949,
-0.009924,-0.073228,-0.045755,

0.011050,0.013755,0.023837,
0.063467,-0.052357,-0.082301,
-0.074216,-0.053962,0.030087,

-0.084552,0.059190,0.014755,
0.003843,-0.059968,0.075593,
0.034149,-0.028771,-0.040636,

-0.025861,0.004606,-0.044426,
-0.031866,-0.000050,-0.040265,
0.022665,0.062980,0.020930,

-0.062000,-0.046718,0.056561,
-0.079876,0.035893,-0.033560,
0.024453,-0.050886,0.068889,

0.052146,-0.007079,-0.041254,
-0.053738,-0.077760,-0.048955,
0.080061,-0.057827,-0.012488,

0.063357,0.065988,-0.023986,
0.047556,-0.039269,-0.059399,
-0.006623,0.014036,0.074700,

-0.084992,0.012159,-0.058259,
0.080022,-0.041939,0.009909,
-0.043394,0.059334,0.067822,

-0.052820,0.018699,0.077278,
-0.053981,0.000164,0.064777,
-0.085912,-0.019177,-0.060360,

-0.066865,0.004186,-0.047937,
-0.000778,0.074249,-0.010700,
-0.047047,-0.004068,0.059070,

0.032880,-0.083645,0.064712,
0.062482,-0.084650,0.042323,
-0.047298,-0.059370,-0.034459,

-0.075615,0.061266,0.028901,
0.049089,-0.028824,-0.025722,
0.026265,-0.045136,-0.038022,

0.070194,0.034301,-0.026481,
-0.033917,-0.037563,0.001282,
0.078420,0.007554,0.054331,

0.037059,0.059439,-0.032139,
0.058351,0.023825,-0.002247,
-0.005056,-0.020738,0.086276,

0.003670,-0.085153,-0.084036,
-0.085297,0.044957,0.012451,
0.064462,-0.028421,0.085079,

0.043177,0.001955,0.039269,
-0.065361,0.026018,0.073831,
-0.051103,0.034852,0.031141,

-0.023129,0.017692,0.053947,
0.028860,-0.051457,0.016935,
0.013057,-0.033172,-0.021774,

-0.049985,-0.075143,0.038255,
-0.044390,-0.054843,0.068157,
0.058001,0.043190,0.061047,

-0.085270,-0.002472,-0.078657,
0.038604,-0.038382,-0.010627,
0.050685,0.019807,-0.036620,

0.067744,-0.040082,-0.014289,
0.034020,0.077096,-0.000175,
0.006817,0.010313,-0.047502,

0.002597,0.059198,0.025884,
0.015658,0.046338,-0.063883,
0.057277,0.067490,-0.008644,

-0.076200,0.059793,-0.037864,
-0.035643,0.067669,-0.069009,
-0.022372,-0.067042,-0.051548,

0.042928,-0.056184,0.002765,
0.047727,0.063595,0.027614,
-0.053509,0.047945,0.033418,

-0.058650,-0.063859,0.009123,
-0.041284,-0.051218,-0.020539,
-0.025774,0.058763,-0.075649,

0.047533,0.064534,-0.037730,
-0.006988,-0.033951,-0.023453,
-0.069870,-0.029943,0.059117,

-0.042335,-0.032871,0.059072,
0.034333,-0.064271,0.081897,
-0.029156,-0.045539,-0.059880,

0.037367,-0.063078,-0.021197,
0.050283,0.062023,-0.028677,
-0.073529,-0.028729,0.045469,

0.047134,0.072232,-0.080856,
0.047738,0.061158,0.048281,
0.077306,-0.050122,0.059274,

-0.019464,-0.017833,-0.038487,
-0.037440,0.068734,-0.032376,
0.064701,-0.038410,0.027915,

0.010460,-0.058227,0.021902,
0.053607,-0.040760,-0.084183,
0.070543,0.013406,-0.002581,

-0.024477,0.020096,0.018026,
0.035550,-0.046961,-0.056569,
0.047257,0.023042,-0.067225,

-0.038067,-0.016882,-0.033298,
0.075523,0.055400,-0.072349,
0.076466,-0.062979,-0.000812,

0.063044,-0.018161,-0.073948,
-0.042314,-0.008004,0.060191,
0.071405,0.067299,0.032676,

0.083985,0.048109,0.078793,
0.060207,-0.031198,0.026214,
-0.061385,-0.031299,-0.013275,

-0.048634,0.086179,0.067839,
0.020523,0.026677,-0.018102,
0.085064,0.014718,0.064006,

0.069174,-0.076491,0.074917,
-0.028161,0.069478,0.082399,
0.083102,0.071123,0.026337,

0.068950,-0.026839,0.070182,
0.000255,-0.060811,0.000919,
0.013865,-0.056662,0.032862,

0.069360,0.028275,-0.086339,
0.040849,-0.060075,0.047769,
0.013818,0.075546,-0.045430,

0.067598,-0.040284,-0.016837,
-0.039041,0.020356,0.015308,
0.076858,0.016565,0.007969,

-0.028151,-0.071790,0.065569,
-0.058566,0.067463,-0.065423,
0.016329,-0.043536,-0.012354,

-0.042164,-0.069139,0.045888,
-0.012567,0.072212,0.062526,
0.006191,0.079182,0.047814,

0.046357,-0.049843,0.007042,
0.048556,0.046302,0.012658,
-0.022063,0.006400,0.033485,

0.050932,0.055401,-0.046611,
-0.059153,0.013964,0.076130,
-0.011586,-0.063852,0.064585,

0.004067,0.025648,0.071126,
0.066917,0.004038,-0.072060,
0.077810,0.024356,-0.063589,

0.038159,0.049260,-0.073191,
-0.047490,0.050709,0.068041,
-0.074313,0.044208,-0.078536,

-0.078869,0.074494,0.077213,
-0.069629,0.079056,-0.025244,
-0.031500,-0.047050,-0.023492,

-0.064415,0.035782,0.049128,
-0.047246,-0.075400,-0.011330,
-0.076071,-0.070159,-0.033460,

-0.066761,0.066937,-0.056033,
0.063754,-0.079503,-0.010688,
0.058997,-0.076010,0.029064,

-0.024792,0.048054,-0.031836,
0.005603,0.080636,0.062136,
-0.049748,-0.062888,-0.003634,

-0.048763,0.014643,0.006531,
-0.054658,0.048348,-0.019745,
-0.043858,0.047109,0.084907,

0.019018,0.027409,0.022549,
0.017163,0.052587,0.049451,
0.043215,-0.057847,0.014783,

-0.017783,-0.077010,0.016062,
0.025220,-0.038793,0.042960,
-0.058562,-0.036754,-0.038181,

0.052995,0.059111,-0.073130,
-0.073799,0.050568,-0.033133,
0.023829,0.062735,0.066436,

-0.024088,-0.062877,0.065863,
-0.044285,0.071305,0.036924,
-0.014479,0.016396,0.033857,

-0.070924,0.046389,0.064536,
-0.004301,-0.085774,0.001186,
0.040222,-0.007652,-0.059987,

0.020221,0.045156,-0.067011,
0.063455,0.055562,-0.056097,
-0.028271,0.009498,0.048787,

0.055548,0.076148,0.054970,
-0.081321,-0.010871,0.058318,
-0.004729,-0.031763,-0.026427,

0.046536,0.038946,-0.002345,
-0.075303,0.047950,-0.030643,
0.070184,0.034673,-0.083640,

0.033437,0.068912,0.005048,
0.016230,0.017403,0.018723,
-0.013241,0.027569,-0.068960,

-0.004306,0.080014,-0.009669,
-0.061728,-0.013191,-0.085755,
-0.044790,-0.007427,-0.020108,

-0.068206,0.020706,0.031343,
-0.028646,0.062378,-0.066487,
-0.068057,0.067259,0.008693,

-0.061423,-0.064833,-0.005403,
-0.008956,0.066699,-0.033984,
-0.046099,0.064131,0.043391,

0.013375,-0.033712,0.041522,
-0.034762,-0.067953,-0.031537,
-0.061630,-0.003022,0.014085,

-0.038001,0.050119,-0.018956,
-0.052832,0.064818,-0.052758,
0.078017,-0.042163,-0.015478,

-0.074885,-0.017725,-0.057966,
0.019713,0.032755,0.008071,
0.046341,0.078340,-0.019083,

-0.036688,-0.054140,0.035343,
-0.024057,0.048189,-0.060431,
0.068989,-0.083457,-0.081962,

-0.064942,0.073017,-0.051339,
0.000599,-0.001922,0.033109,
-0.015236,-0.054925,-0.012109,

-0.025730,0.065014,-0.080037,
-0.011343,0.072144,-0.051875,
-0.048614,-0.015683,-0.027555,

0.069114,-0.058112,0.006663,
-0.037979,0.001650,-0.027203,
0.047587,0.057418,0.034243,

0.001036,0.047147,-0.049645,
0.022503,0.046082,0.002338,
-0.006781,-0.056273,0.060514,

-0.001192,-0.031780,-0.010682,
-0.034071,0.017133,-0.026873,
-0.068978,0.021003,0.072140,

-0.023999,-0.068550,-0.077120,
-0.034111,-0.056531,0.069066,
-0.028275,-0.071580,0.052403,

-0.033099,0.073371,-0.053163,
0.062490,0.064995,0.077571,
-0.079153,-0.000572,0.064908,

0.034100,-0.054367,0.002261,
0.012861,0.058791,-0.028646,
-0.066939,-0.069071,-0.027344,

0.004410,-0.037369,-0.043709,
0.054030,0.074989,0.067537,
-0.073918,-0.005120,0.058654,

-0.019005,-0.072227,-0.016549,
-0.008095,-0.052264,-0.056666,
0.073805,0.022080,0.042046,

-0.039043,-0.076896,0.018163,
-0.059926,0.018662,0.043871,
0.037027,-0.051987,-0.043305,

-0.013215,-0.032712,0.036100,
0.012595,0.006942,-0.009730,
-0.058911,0.062897,-0.055240,

0.069274,-0.062790,-0.029248,
0.005189,0.008038,0.031909,
0.014476,-0.074248,-0.058750,

-0.034099,0.032439,-0.068794,
-0.002117,-0.050508,-0.048702,
-0.048180,0.076264,0.005662,

-0.044835,0.015034,-0.072458,
-0.059698,0.068996,-0.030208,
0.077972,-0.046441,0.029194,

0.057963,-0.066989,-0.048098,
0.062254,0.004930,-0.005501,
-0.071130,-0.036369,-0.031249,

-0.061007,-0.013861,0.050827,
-0.055468,0.050315,0.075322,
-0.015966,-0.023717,0.006743,

0.019398,0.067978,0.083498,
-0.043257,-0.020731,-0.045881,
0.054471,-0.019908,0.003095,

0.042564,-0.050384,-0.043527,
-0.004496,-0.061920,0.021298,
0.020951,0.024336,-0.032779,

0.047758,-0.034732,0.010434,
0.018921,-0.045563,0.048124,
-0.011425,0.059390,-0.067832,

-0.065212,-0.019573,-0.000958,
-0.021422,-0.072163,0.024817,
0.041404,0.017658,-0.042019,

-0.064135,0.039912,0.069276,
0.064969,0.001471,-0.003168,
0.026420,-0.023128,-0.016392,

0.041399,-0.047324,0.039886,
0.074633,0.013481,0.078751,
0.068058,0.005951,-0.078485,

0.062227,0.038306,0.007667,
0.062205,0.056575,-0.024636,
0.016755,-0.014600,-0.071649,

0.045551,0.038237,-0.026595,
0.076833,-0.061291,-0.019762,
-0.070294,0.024622,0.062938,

-0.057293,0.013290,0.082827,
0.050701,0.056204,-0.033858,
0.068022,-0.026790,0.011247,

-0.049286,0.082437,-0.056865,
-0.037958,0.002078,0.001030,
-0.060072,-0.009779,-0.050087,

0.018806,0.020290,-0.043956,
0.019003,-0.003044,0.070724,
0.050919,-0.007099,0.069520,

-0.028908,0.024662,-0.040488,
0.017564,0.029379,-0.024613,
0.033242,-0.038869,-0.017978,

-0.001929,0.008270,0.084220,
0.047259,-0.012500,-0.044474,
-0.072320,0.027690,0.014338,

0.040835,0.079294,0.036283,
0.043949,-0.052187,-0.029231,
-0.031194,0.044393,-0.059162,

-0.047542,-0.005905,0.000824,
-0.041995,0.011692,-0.048762,
-0.048717,-0.010978,0.064512,

0.068228,-0.060924,0.016687,
0.015642,0.030650,0.018583,
-0.070595,-0.030963,0.054002,

0.055963,0.081764,0.011778,
-0.006671,-0.003195,0.029159,
0.035970,-0.016516,-0.065994,

-0.022351,0.064519,-0.075011,
0.078410,-0.077363,0.017144,
-0.036635,-0.020463,0.069166,

0.032598,0.071971,0.023292,
0.054242,0.064026,0.076925,
-0.003410,-0.006791,-0.046146,

-0.054261,-0.034727,0.047025,
-0.042522,0.073089,0.048392,
-0.021417,0.009406,0.056979,

-0.022275,0.076895,0.013119,
-0.011729,0.028909,0.072588,
-0.048559,-0.055865,-0.017880,

-0.063828,0.085376,-0.058872,
-0.023505,0.005110,0.014171,
0.012151,0.016199,-0.037980,

0.048096,-0.014605,-0.050347,
-0.024748,-0.017652,0.003398,
-0.000456,-0.058582,0.083251,

0.075828,0.079485,-0.068099,
-0.067284,0.024707,-0.009645,
0.070641,0.065390,-0.036358,

-0.016240,0.039507,-0.054012,
0.076321,0.043168,-0.003717,
0.052523,0.035366,-0.052470,

-0.004193,0.057803,0.079875,
0.010639,0.025198,-0.075837,
-0.033808,-0.062011,0.016899,

-0.065036,-0.046829,0.084830,
-0.029626,0.050441,-0.053282,
-0.036424,0.077334,0.013993,

0.077518,-0.057823,0.034260,
0.050353,-0.053310,-0.076609,
0.028538,0.054947,0.003401,

-0.014565,0.058908,-0.002557,
0.038787,-0.059047,-0.022687,
0.049469,-0.016603,0.007393,

0.082473,-0.011686,0.078132,
-0.002513,0.062601,0.031615,
-0.022130,0.046346,-0.023288,

0.058337,-0.050090,0.050051,
-0.073087,0.035476,0.076549,
0.038755,-0.001636,0.040232,

0.046305,-0.001539,0.024791,
0.061421,-0.067665,0.011240,
-0.014962,0.028403,0.070476,

0.017888,0.034828,-0.029500,
-0.049801,-0.008472,0.050099,
0.016753,0.057574,0.074300,

-0.010988,0.022337,0.040856,
-0.049000,-0.033131,-0.069207,
0.017340,0.047764,0.016113,

0.023778,0.077769,0.044374,
-0.000768,0.076855,0.009657,
0.003678,-0.041790,0.040128,

-0.024037,0.051079,0.062438,
0.048617,-0.025445,-0.067550,
-0.040536,-0.004081,0.013884,

0.057380,-0.030459,0.043798,
-0.083584,-0.041242,0.054424,
0.017181,0.061260,0.061967,

0.051133,-0.041960,-0.011562,
-0.014721,0.017364,-0.014532,
-0.076786,-0.085526,-0.077040,

-0.048109,-0.061872,-0.060493,
0.022172,0.083224,0.084701,
0.002871,0.044816,-0.077681,

-0.008111,0.037902,0.074483,
-0.075618,-0.072909,0.008636,
-0.050216,-0.052865,-0.041401,

-0.014800,0.048996,0.011801,
0.083900,-0.035001,-0.053307,
0.001703,0.071564,-0.015267,

0.003676,0.064015,-0.020094,
-0.003278,-0.064105,0.019321,
0.055691,0.034090,-0.023446,

-0.054939,-0.051757,0.005399,
0.010717,0.006262,0.026663,
0.080109,0.001668,0.009740,

0.053866,-0.045412,0.048604,
0.004696,-0.075200,0.073360,
0.061304,0.073377,0.068009,

-0.017741,0.058465,0.024145,
0.019492,0.064849,-0.039113,
-0.007554,-0.028587,-0.043857,

-0.045386,0.004476,0.046859,
-0.009788,-0.026607,0.014360,
0.012123,0.051383,-0.019946,

-0.035382,-0.062617,0.052797,
-0.037672,-0.077407,-0.034038,
0.079001,0.016580,-0.003737,

-0.043416,-0.067143,0.056879,
0.010838,0.049999,0.028706,
-0.050058,-0.072394,0.065052,

-0.074898,0.022007,0.074210,
0.047378,0.039330,-0.039116,
-0.067344,-0.026842,0.050761,

0.014604,-0.050428,0.078061,
-0.031308,0.043047,0.063820,
0.053751,0.030429,0.017925,

0.074629,-0.051512,0.062535,
0.011170,0.072389,0.065408,
0.033283,0.057844,-0.008302,

0.078571,0.037604,-0.065978,
0.007625,0.074639,0.039490,
-0.047469,0.077890,-0.018457,

0.076022,-0.083142,0.025787,
-0.077115,0.032909,-0.028167,
0.001444,0.056850,0.044240,

0.072495,-0.050316,0.058299,
-0.069486,-0.082353,-0.033445,
-0.003560,-0.064335,0.035333,

-0.053297,0.037409,-0.078607,
0.059910,0.001578,-0.031419,
-0.020197,-0.001784,-0.086161,

-0.032872,0.036408,-0.032223,
-0.050703,0.070873,0.029965,
0.068405,-0.015357,0.058847,

0.057662,-0.044601,-0.072819,
0.042124,-0.036986,0.081734,
0.043178,-0.011133,0.008725,

-0.058394,-0.084482,-0.024818,
-0.057621,-0.086237,0.056486,
0.078086,0.018120,-0.063017,

-0.023602,-0.079251,-0.006157,
-0.030701,-0.083011,0.041831,
0.003710,-0.019417,-0.083978,

0.002891,-0.044866,-0.047061,
0.024988,-0.067157,0.006667,
0.071272,0.015470,0.016254,

0.003355,-0.037950,0.060931,
0.036894,0.073790,-0.027669,
0.069645,-0.021774,0.058324,

0.032551,0.004682,-0.016782,
-0.063917,0.057448,-0.055830,
-0.010835,0.000001,0.052478,

-0.025921,0.058052,-0.029858,
-0.070818,0.041652,0.003998,
0.022139,-0.029801,-0.058429,

0.017653,0.006024,-0.007843,
-0.000049,0.038403,-0.028141,
0.025472,0.060682,-0.057019,

-0.041775,-0.029918,-0.063971,
-0.062882,-0.085910,0.042571,
-0.031998,-0.020219,0.042171,

-0.055468,-0.005729,-0.047125,
0.065627,-0.072486,-0.045564,
-0.017085,-0.007573,-0.053158,

-0.007717,-0.076162,-0.057137,
0.019909,0.048225,-0.077784,
-0.046129,0.007091,0.063761,

0.034319,0.044070,0.058771,
0.072705,0.017770,-0.024043,
-0.010408,0.024450,0.050814,

-0.041313,0.076631,-0.022238,
0.041783,0.015283,-0.065278,
-0.084358,-0.010909,0.019390,

0.077597,0.001355,0.052179,
-0.079745,-0.031287,0.059258,
-0.052109,0.027384,-0.023510,

0.063041,0.010709,0.043130,
0.059595,-0.048742,-0.034344,
0.026862,0.078399,0.020135,

0.013981,0.022523,0.035625,
0.069828,-0.033845,0.036525,
-0.004699,-0.045346,0.031356,

0.055144,0.043631,0.041487,
0.001822,0.047364,-0.026841,
0.011850,-0.053103,0.015775,

-0.009544,0.020299,-0.002340,
-0.061105,0.077626,-0.003987,
-0.012026,-0.072626,-0.041299,

-0.039164,-0.053144,-0.033663,
-0.014199,-0.065696,-0.076997,
0.062418,0.074603,-0.076966,

0.020540,0.022188,0.033779,
-0.076837,0.039738,-0.038582,
-0.027961,-0.071219,0.028807,

-0.076248,0.047858,-0.033144,
0.000306,-0.042661,0.041718,
0.035829,-0.061064,0.057120,

-0.000602,0.035980,-0.062447,
0.022172,-0.028301,0.049983,
0.062439,0.027605,0.022857,

0.012079,-0.034819,0.075371,
0.054620,0.015882,0.002686,
-0.011868,-0.083545,0.018015,

-0.035549,0.050224,-0.006371,
-0.017064,-0.011324,-0.013428,
0.032667,0.059708,0.067011,

0.039846,0.059249,0.010208,
0.019650,-0.037808,0.051510,
0.024258,-0.000482,0.009810,

-0.048356,0.063243,0.009590,
-0.033282,0.022170,0.025603,
-0.056693,-0.022346,0.018933,

-0.045146,-0.066385,0.001757,
-0.025556,0.008586,-0.033877,
0.056420,0.029509,-0.004216,

0.004772,-0.066614,-0.070443,
0.018348,0.056393,-0.065604,
-0.067873,0.003676,0.051934,

0.068520,-0.062921,0.036782,
-0.007490,0.064348,-0.042504,
-0.056155,-0.068426,-0.086218,

0.009217,0.071867,-0.015760,
0.027083,-0.041810,-0.073672,
-0.053316,0.025349,-0.079380,

0.045781,-0.077290,0.033681,
0.058237,0.023839,0.006937,
-0.000323,0.074033,-0.008787,

-0.070179,0.060153,-0.060089,
-0.034240,-0.006320,0.028602,
-0.072337,-0.029308,0.080105,

0.046993,0.068252,-0.015799,
-0.072178,0.010882,0.063385,
0.056003,0.075280,0.002217,

-0.018463,-0.068676,-0.024267,
0.074255,-0.054906,0.027542,
-0.025104,0.008771,-0.015506,

0.019957,0.031880,-0.051979,
0.074967,0.010134,-0.047660,
0.008986,-0.011579,-0.068096,

0.073899,-0.071151,0.050534,
-0.014033,0.019024,0.016810,
0.049337,0.004122,0.026877,

0.012419,-0.022204,0.076571,
-0.068817,-0.064350,-0.011136,
-0.019542,-0.010486,-0.043894,

0.066088,0.067345,-0.024936,
0.062956,-0.074206,0.035091,
0.062862,-0.042731,-0.038622,

0.066086,0.015387,0.046288,
-0.002054,0.055370,0.068384,
0.056137,-0.051608,0.052461,

-0.076519,-0.065788,0.012700,
-0.013585,-0.048511,0.048009,
0.011683,-0.028427,0.012288,

0.068726,0.069355,0.069097,
-0.034100,-0.023765,-0.060404,
-0.009662,-0.026393,0.007126,

0.070562,-0.041417,0.007416,
-0.063046,-0.039446,-0.072858,
0.008771,-0.055883,-0.069687,

0.041758,-0.063620,-0.022897,
-0.064718,0.013945,0.071623,
0.040039,-0.017177,0.047617,

-0.048291,-0.068428,-0.080093,
0.033355,0.029280,0.041098,
-0.059614,-0.069517,0.039635,

-0.045473,0.016197,0.077235,
0.067123,0.073787,0.019683,
-0.016406,-0.011424,0.048827,

0.054971,-0.025770,-0.036246,
0.031217,-0.014768,0.053446,
0.082828,-0.052259,0.084575,

-0.064744,-0.073051,-0.000443,
-0.036449,-0.024305,0.007506,
-0.059423,0.010288,-0.025461,

0.006778,0.082584,0.035520,
0.078100,-0.049859,-0.066015,
-0.079146,0.000263,-0.067622,

-0.047061,-0.002792,0.044885,
-0.047800,-0.069776,-0.029191,
0.042734,-0.050567,-0.065489,

0.055143,-0.040227,0.049437,
-0.061184,0.006068,0.072333,
-0.005671,0.054688,0.082068,

-0.018270,0.018011,0.000250,
-0.050400,0.038449,0.054006,
0.039306,-0.021097,-0.052193,

0.050858,-0.014948,0.083075,
0.044938,-0.023402,0.048828,
0.021303,0.048594,-0.069470,

-0.016165,0.052413,-0.052794,
-0.073101,0.069788,-0.045091,
0.065789,-0.012052,0.029192,

-0.071316,0.051366,-0.069963,
0.080651,-0.033622,0.044958,
-0.012618,-0.046011,-0.056790,

0.038337,0.003327,-0.046605,
-0.047444,0.077847,0.008993,
-0.001024,0.032530,0.020666,

-0.044086,-0.024265,-0.041245,
0.062942,-0.044345,0.039290,
0.070442,0.045650,-0.073619,

-0.029292,-0.049361,-0.004127,
-0.039314,-0.065417,-0.047008,
0.064395,0.011873,-0.067353,

0.065161,0.076105,0.076020,
0.024008,0.005214,-0.026582,
0.041265,0.013379,0.056221,

-0.038917,-0.030670,0.019612,
0.045007,-0.064585,-0.025289,
0.002901,0.052205,0.044982,

-0.066040,-0.075503,-0.036077,
-0.061238,-0.023224,-0.073615,
-0.003448,0.075888,0.026705,

-0.051945,0.065866,-0.041354,
-0.056726,0.040033,0.023143,
-0.026360,0.062539,0.025953,

-0.016653,-0.010423,-0.071406,
-0.062541,-0.036691,-0.031288,
0.064254,-0.002928,-0.041496,

0.010632,0.054745,-0.003707,
-0.066451,-0.019681,-0.061649,
-0.040443,-0.054611,0.030453,

0.013512,-0.013906,-0.007332,
0.037444,-0.077267,-0.050911,
-0.019442,-0.077902,0.048713,

-0.056665,0.079489,0.078689,
-0.009374,0.056659,0.030697,
0.029832,-0.006083,0.047780,

-0.069580,-0.037282,-0.044029,
0.044564,-0.036535,0.014448,
0.015789,-0.013492,-0.024647,

0.038724,0.082135,-0.028198,
0.010517,-0.041132,-0.029822,
0.079464,-0.006571,-0.036226,

0.070083,0.046011,0.049313,
-0.041036,-0.032831,0.056686,
-0.067585,-0.016964,0.009271,

-0.064389,-0.057825,-0.061134,
0.067690,-0.030500,-0.075920,
-0.014448,0.030297,0.033075,

-0.025396,-0.074683,0.010906,
-0.031233,-0.019139,0.020748,
0.035846,-0.034049,0.069461,

0.008972,0.060451,-0.062331,
-0.024577,-0.030045,-0.020461,
0.028350,0.060969,0.051483,

-0.067578,-0.014926,-0.025951,
-0.063750,0.065740,-0.052690,
-0.054316,-0.077842,0.064045,

-0.011660,0.044385,-0.067882,
-0.063289,-0.031647,0.043508,
0.000328,-0.041126,0.049719,

0.085195,-0.005160,-0.028745,
0.010513,-0.039004,0.008861,
0.001361,-0.004803,0.043669,

-0.053426,0.071447,0.033143,
0.072809,0.082173,0.001059,
0.060115,-0.025791,-0.009720,

-0.069550,-0.049036,0.040369,
0.058987,-0.077028,0.060327,
0.022993,-0.076531,0.031193,

0.016723,-0.046138,0.019175,
-0.026991,-0.047541,0.031810,
-0.021238,-0.010496,0.063920,

-0.022595,0.030330,-0.013616,
0.008030,0.018165,-0.077797,
-0.045768,0.069590,-0.050508,

0.073921,0.079735,0.027048,
0.058637,-0.020162,0.000493,
0.042798,-0.005853,-0.030316,

0.027107,-0.076005,0.044422,
-0.043524,0.016099,-0.034022,
0.079916,0.029132,-0.031269,

0.010666,0.006478,0.051818,
-0.069503,-0.032169,-0.054972,
0.042097,-0.004705,-0.042433,

-0.022685,-0.009336,0.032049,
-0.020439,0.061781,0.002314,
0.075097,0.072577,-0.062634,

-0.070816,0.025939,-0.042635,
0.038173,0.058236,-0.056098,
-0.034581,-0.073648,-0.029391,

0.033673,-0.072674,-0.052598,
0.075104,0.027197,-0.028346,
-0.011925,0.025689,-0.044775,

0.055477,0.000391,-0.015785,
-0.034095,-0.003624,-0.017868,
-0.009203,-0.067634,-0.010986,

-0.025552,0.051208,0.006285,
0.070452,0.062425,0.021828,
-0.029890,0.049399,0.003594,

0.076055,-0.074747,0.014569,
-0.010072,-0.071006,0.019807,
-0.022881,0.008159,0.020177,

0.084555,-0.036347,0.032581,
-0.036523,0.027715,0.022816,
-0.033457,0.077497,0.031104,

-0.056096,-0.068444,0.056285,
-0.047217,-0.011098,-0.083543,
-0.067989,-0.023651,0.026243,

0.016502,-0.043729,-0.073628,
0.017240,0.050380,-0.021094,
-0.011216,-0.057983,-0.029364,

-0.077366,-0.033553,0.025779,
0.068075,-0.062139,0.043514,
0.055973,0.039282,-0.043128,

0.022591,0.033561,-0.068112,
0.069280,0.000792,-0.016251,
0.082843,0.069092,-0.018486,

-0.025744,0.076871,0.007750,
-0.017958,-0.084956,0.059690,
0.022699,0.067923,0.047857,

-0.066124,0.065644,-0.008347,
0.042390,0.013154,-0.039718,
-0.011355,0.045891,-0.029979,

0.033743,-0.038268,0.003859,
0.013756,0.025192,0.007142,
-0.048757,-0.060896,-0.032788,

-0.054686,0.006858,-0.015824,
-0.037095,-0.012792,0.016806,
-0.008983,-0.063664,-0.033075,

-0.067662,0.033279,0.045346,
-0.023682,-0.076779,0.060365,
0.071455,0.036603,-0.003812,

-0.066190,-0.030450,-0.048554,
-0.067644,0.015885,-0.046920,
-0.031959,-0.069089,0.073331,

0.011834,-0.067315,-0.000966,
-0.020084,0.079552,-0.070317,
0.006084,0.025694,-0.005088,

0.022498,0.055988,0.069629,
-0.059226,0.039000,-0.029650,
0.074026,-0.028967,0.047270,

0.015027,-0.019031,-0.010479,
-0.036090,-0.020154,-0.004920,
0.008221,-0.013821,-0.040582,

-0.056272,0.041271,0.072494,
0.028858,0.008988,-0.040650,
0.061351,0.010026,0.056962,

0.031947,0.020594,-0.057228,
0.016637,0.041340,0.083169,
-0.085930,0.069401,0.026684,

-0.076843,-0.062871,0.035826,
0.016770,-0.035036,-0.033887,
-0.020215,0.026889,0.040142,

0.022521,-0.045624,-0.080097,
0.054814,0.019224,0.061733,
-0.062799,0.031877,-0.077822,

0.015133,0.065335,0.019956,
-0.045855,-0.077535,-0.022355,
-0.012540,-0.044941,0.047262,

-0.082587,0.030921,0.054509,
-0.008111,-0.040968,0.056700,
-0.026895,-0.074556,0.049698,

0.009013,-0.074858,-0.029450,
-0.069630,-0.069313,-0.035460,
0.057597,0.077324,0.053018,

0.026030,0.057733,0.011626,
-0.004927,-0.017539,0.004073,
0.061591,-0.006285,0.028622,

-0.021739,-0.025968,0.072567,
-0.076788,0.076200,-0.045400,
-0.035730,0.001963,-0.047392,

-0.074008,-0.048410,0.018803,
-0.075340,-0.058519,-0.048784,
0.067931,-0.064160,-0.001562,

-0.071448,0.009652,0.074632,
-0.010933,-0.028566,0.036133,
0.017175,-0.081961,0.008212,

-0.081883,-0.042799,0.018230,
-0.000796,-0.048963,-0.030593,
0.017417,0.038884,0.024144,

-0.075039,-0.072745,0.050950,
0.021843,0.000258,0.019546,
-0.084983,-0.076070,-0.011945,

-0.031516,0.041212,0.037106,
-0.028565,0.038437,-0.071309,
0.039853,0.001220,-0.043672,

0.035363,-0.046077,-0.052849,
-0.059888,-0.063444,-0.078155,
0.002356,0.064550,-0.039979,

-0.080025,0.051623,-0.053248,
-0.034904,-0.001046,0.063010,
-0.071154,-0.039423,0.054820,

0.052943,0.044158,0.070472,
-0.008571,0.026057,-0.069232,
0.072598,-0.000259,0.030480,

-0.071209,0.075595,0.044545,
-0.007303,0.050961,-0.007346,
-0.010293,0.041982,-0.053604,

-0.049098,0.073497,0.011169,
-0.028917,-0.022458,0.010017,
0.039229,0.007739,-0.029299,

-0.065970,-0.025882,0.015158,
0.053553,0.064769,-0.012915,
0.046802,0.072548,-0.002890,

0.029115,0.062430,0.044848,
-0.028806,0.064623,-0.029156,
0.075354,-0.037888,0.041382,

-0.067737,0.002192,-0.056921,
-0.081581,-0.002268,-0.028871,
0.034827,0.079209,0.069608,

-0.018342,-0.084485,0.001393,
0.017701,-0.032121,0.010244,
-0.018009,0.035048,-0.046355,

-0.032705,-0.065158,0.040321,
0.046943,-0.084354,-0.053571,
-0.044508,-0.060126,0.006413,

-0.010816,-0.039284,-0.060211,
0.011027,-0.055577,-0.004781,
0.030615,-0.075494,0.037434,

0.018169,-0.061772,-0.083988,
0.018461,0.028592,-0.011672,
0.057673,-0.055687,0.061210,

-0.063897,-0.050802,-0.058792,
0.028533,0.076643,0.034918,
0.000431,0.048672,0.041528,

-0.007248,0.061816,-0.049900,
0.034971,-0.036928,0.032079,
0.074056,-0.023880,-0.078365,

0.030324,-0.058148,-0.086116,
0.026519,0.061175,-0.052864,
0.002474,-0.014395,-0.064602,

-0.050234,-0.053335,-0.035687,
-0.028950,-0.077717,-0.029649,
-0.035836,-0.018582,0.042352,

0.025933,0.008500,0.061462,
-0.015289,0.039904,0.043261,
-0.073847,-0.029810,0.019618,

-0.019630,-0.050377,-0.033220,
0.014527,-0.084839,0.038253,
-0.064069,-0.011957,0.066919,

-0.017084,0.019529,-0.023834,
-0.003261,-0.023428,0.077053,
-0.059395,-0.056031,0.049951,

-0.023424,-0.013183,0.027036,
0.077093,-0.060222,-0.018027,
0.036835,-0.043801,0.017054,

0.037953,0.031838,0.036384,
-0.071079,0.067669,0.065936,
-0.040486,0.038003,0.056787,

0.061664,-0.045701,-0.077331,
0.009100,0.054300,-0.014535,
0.062805,-0.014204,0.044085,

0.031652,0.055909,-0.030056,
-0.072145,-0.054563,-0.008773,
-0.009902,0.010169,-0.050629,

0.033690,-0.041449,-0.083162,
-0.031366,0.070979,-0.073008,
-0.064168,0.040710,0.007223,

-0.047065,0.063745,0.061933,
-0.074525,0.038421,-0.021746,
-0.074397,-0.057558,-0.045803,

0.027609,-0.036419,0.004434,
-0.044119,0.034821,-0.054257,
-0.059491,0.074435,0.064942,

-0.059178,-0.054503,-0.036009,
0.086152,0.015036,-0.030634,
0.062530,0.040690,0.002184,

0.048784,-0.006578,-0.024945,
0.046575,-0.002723,-0.045707,
0.007605,-0.049817,0.029741,

-0.080048,-0.022896,0.042093,
-0.018648,0.060453,0.068445,
-0.068467,-0.027151,0.044208,

0.039524,0.056684,0.016079,
0.081182,-0.023005,0.073254,
0.046490,0.014926,0.006901,

-0.017621,0.007275,-0.026065,
-0.021166,-0.026399,-0.029963,
0.072492,0.017541,0.070241,

-0.002876,-0.080457,0.058445,
0.073159,0.024344,-0.082306,
0.042983,0.078670,-0.013061,

0.008266,0.051024,-0.027152,
0.078685,-0.013460,-0.013998,
-0.026761,-0.012088,-0.015485,

0.024480,0.044699,-0.044698,
-0.060427,0.041934,0.003430,
0.054874,-0.024442,-0.008417,

-0.050311,0.063581,0.075795,
0.065364,0.039220,0.022495,
-0.078615,-0.033377,-0.073656,

0.077995,0.049766,0.078821,
0.018204,0.043321,0.019176,
-0.034602,0.029744,0.078586,

0.045820,0.036424,0.021946,
-0.078269,-0.031753,-0.049774,
-0.011407,-0.073550,0.002826,

0.043521,0.030075,-0.077300,
0.060352,-0.007070,-0.054014,
-0.070594,0.084485,0.004830,

0.064817,0.043750,0.049372,
-0.044032,-0.055711,0.075031,
0.046738,-0.025350,0.065975,

0.053321,0.055844,0.049343,
0.050152,-0.063716,-0.053966,
-0.077973,-0.059970,-0.014713,

-0.023642,0.013120,-0.080884,
-0.009799,-0.078047,0.010461,
-0.039495,-0.027008,-0.009695,

0.071011,0.038630,-0.008342,
0.076133,-0.054080,-0.061858,
-0.025279,-0.031094,0.015686,

0.080733,-0.058811,-0.008270,
0.022472,0.020831,0.038494,
-0.047434,0.038414,0.084100,

0.023929,-0.012139,0.035820,
0.002604,0.011448,-0.015253,
-0.000282,0.056573,0.063200,

-0.048167,-0.049550,0.016553,
-0.004708,-0.006002,-0.070194,
0.069571,-0.045131,0.076590,

-0.065501,-0.074838,0.050536,
-0.033151,-0.047140,0.083111,
-0.050912,0.012796,-0.004891,

0.011085,0.064071,0.058935,
0.065316,-0.000148,-0.065314,
0.019852,0.023950,0.078841,

-0.013461,-0.018115,-0.061649,
-0.061375,-0.042127,-0.011631,
0.014512,0.068111,0.070036,

0.032874,-0.002918,-0.033314,
0.085965,0.080391,0.086459,
-0.005797,0.019129,0.000199,

0.077966,-0.053210,-0.000881,
-0.041583,-0.075017,-0.015160,
-0.083228,-0.066162,-0.044548,

-0.052303,-0.046731,0.045138,
-0.037302,0.040705,-0.041466,
0.063615,-0.007454,0.026724,

-0.070056,0.057917,-0.070716,
0.085377,0.078616,0.077809,
-0.041374,0.018231,0.021532,

-0.007680,0.009059,-0.024358,
0.058203,-0.056375,0.052170,
-0.002507,0.015334,0.066052,

0.060624,-0.075672,0.058258,
0.061935,-0.079066,-0.039063,
0.069580,-0.056003,-0.059456,

-0.078452,0.077877,-0.006423,
0.057583,-0.045794,-0.058389,
-0.046393,-0.034954,-0.018742,

-0.041700,-0.062841,-0.038749,
-0.004148,0.023244,-0.086315,
0.057622,0.006022,0.063331,

0.013715,0.074506,0.011182,
0.065112,-0.040809,-0.043492,
0.028649,0.068269,-0.062300,

-0.038565,-0.067205,0.063144,
-0.024107,-0.030499,-0.043630,
-0.052394,0.048968,0.048817,

0.018272,-0.051758,0.059593,
-0.060534,0.013833,0.072324,
-0.054875,0.001164,0.085476,

0.044669,-0.063844,0.024508,
-0.070964,0.056595,-0.056636,
0.035336,0.067954,-0.041859,

0.032783,0.057892,0.084969,
0.068157,-0.040883,-0.019420,
0.012401,-0.009586,0.050673,

0.021115,0.082145,-0.034836,
0.074459,0.069992,-0.006146,
0.003251,-0.057820,0.024939,

0.037669,-0.004710,-0.026601,
0.046863,0.035148,0.033130,
-0.021597,0.017011,0.013588,

0.013416,-0.076590,-0.067724,
-0.024919,0.072180,0.041390,
-0.068930,-0.059289,-0.047075,

0.075485,0.067003,-0.064915,
-0.045518,-0.009815,-0.074312,
-0.030896,-0.049708,-0.052580,

0.071334,-0.000946,0.033164,
0.072085,0.044026,0.036293,
0.002416,0.060681,0.038137,

-0.004377,0.022167,-0.072583,
-0.076021,-0.003490,-0.077440,
0.029631,0.011285,0.068992,

-0.061446,-0.056897,-0.041527,
-0.069829,-0.077136,0.040588,
0.067241,-0.017228,-0.076708,

0.028709,-0.054099,0.018768,
0.005133,0.021540,0.004303,
-0.075958,-0.064802,-0.021150,

-0.019710,0.028005,0.044499,
-0.064722,-0.039032,0.064609,
-0.052452,-0.053108,-0.049000,

0.079565,0.053256,0.033839,
-0.078338,0.058171,-0.027302,
-0.026152,0.083218,0.011090,

0.024274,-0.080154,-0.006342,
-0.068040,0.010971,-0.000980,
-0.064978,-0.038771,-0.008387,

0.008232,-0.014118,-0.011098,
0.043613,-0.034221,0.033476,
-0.071744,-0.070850,-0.055606,

-0.065198,-0.027364,-0.007921,
-0.067477,0.033316,-0.020961,
-0.057103,-0.025610,0.060124,

-0.014601,0.003187,-0.055758,
0.067120,0.030195,-0.052652,
-0.028686,0.040131,-0.002096,

0.079888,-0.035934,-0.035334,
0.055735,-0.070173,0.063126,
0.032030,0.079211,-0.080185,

0.058086,0.080904,0.016175,
0.077794,0.071537,-0.006627,
0.035027,0.033237,-0.046430,

0.022565,0.042121,-0.063343,
0.077267,0.043127,-0.006264,
0.084785,-0.044367,-0.073182,

-0.008205,0.004187,0.052173,
-0.024081,0.082896,-0.060714,
0.078420,0.001522,0.073967,

0.002804,0.017623,-0.054973,
-0.007209,0.062303,-0.048454,
-0.061229,0.041810,0.074386,

0.026549,0.068457,-0.016138,
0.041872,-0.023125,0.016001,
0.072493,-0.066504,-0.018873,

-0.027029,0.006279,0.071071,
0.049593,-0.007109,-0.037060,
-0.027782,0.062222,0.064154,

0.005696,0.079896,0.011436,
0.067487,-0.032854,-0.053546,
-0.004728,0.076576,0.053822,

0.056597,-0.024956,0.082771,
-0.027809,-0.075206,0.071808,
-0.046331,0.071279,-0.005971,

0.009606,-0.047407,-0.060211,
0.024140,-0.058477,0.004211,
0.081538,0.082036,0.032952,

0.045592,-0.057256,-0.004332,
-0.040209,-0.021004,0.018751,
-0.025140,0.001774,0.053806,

-0.034230,0.069344,0.014834,
-0.024628,0.008235,-0.032468,
-0.056299,0.049056,0.060991,

-0.010501,0.079264,0.016043,
-0.049561,0.064411,-0.027628,
0.013257,0.043782,-0.061820,

0.057777,0.011664,-0.051032,
0.014502,-0.062721,-0.007439,
0.064252,0.049625,-0.008040,

-0.006521,-0.074911,0.078011,
0.041395,0.046528,-0.034033,
-0.061264,-0.073138,-0.050131,

-0.020348,-0.076325,0.034886,
-0.032780,0.014142,-0.069487,
0.014858,0.043888,-0.046190,

0.025659,-0.027747,-0.022161,
-0.017825,-0.023108,-0.020997,
-0.026109,0.041099,-0.028533,

0.027477,-0.075575,0.005705,
-0.012805,-0.050230,-0.038531,
0.077881,0.026652,-0.010988,

-0.004174,-0.021901,-0.074227,
-0.059547,-0.048281,0.016879,
-0.044581,-0.038186,0.037111,

-0.057713,0.079241,-0.066789,
-0.013942,0.035709,0.067474,
0.033193,-0.081966,-0.054987,

-0.051707,0.071647,0.012110,
0.083057,-0.035909,-0.059282,
0.015489,0.006538,0.013024,

0.059751,-0.017923,0.058039,
0.068400,0.055870,-0.071019,
0.066305,-0.076819,-0.052400,

0.064506,-0.012965,0.011705,
-0.034274,-0.057725,-0.055658,
-0.079410,0.062836,-0.077795,

-0.008576,-0.043495,-0.013703,
0.080198,-0.019557,0.076678,
-0.047930,0.051207,0.015864,

0.032586,0.035901,-0.029723,
0.045068,0.066141,-0.039776,
0.004709,0.080514,-0.055479,

-0.058106,-0.048793,0.000098,
-0.033290,0.061700,-0.052480,
-0.039589,-0.047499,-0.027853,

0.065796,0.062856,0.016460,
-0.027084,-0.028993,-0.018384,
-0.021008,-0.018939,0.015164,

-0.055501,-0.018922,-0.033333,
0.084201,-0.038536,-0.050013,
-0.017536,-0.010782,-0.077353,

0.039341,-0.041285,-0.060350,
-0.008349,-0.002223,-0.003099,
0.019926,-0.022746,0.054327,

-0.023292,0.012897,-0.023175,
0.015613,-0.014106,0.058207,
-0.030184,0.032763,-0.075852,

-0.080387,-0.055047,-0.017637,
-0.056559,-0.023625,-0.026957,
0.021353,0.022729,0.058670,

-0.011442,-0.060181,0.000818,
-0.021148,-0.080136,-0.067962,
-0.004548,-0.080400,0.035415,

0.031510,-0.019251,0.033509,
0.028574,0.066984,-0.001565,
0.006363,0.022090,0.067806,

0.065242,-0.074599,0.056025,
0.018522,-0.070129,-0.061798,
-0.012912,-0.038997,0.058360,

0.070722,-0.048141,0.030660,
0.053003,0.065168,-0.073345,
-0.072895,0.078284,0.080881,

-0.027108,0.051652,0.058429,
0.002399,-0.038854,0.075687,
-0.006384,-0.011361,-0.059665,

-0.059444,0.026115,-0.081568,
0.041604,-0.019578,-0.047136,
-0.007275,0.036808,0.077163,

0.081057,-0.054470,-0.062352,
0.051883,-0.057008,0.005519,
-0.014708,0.070197,0.014387,

0.036078,-0.066656,0.011331,
0.008387,-0.081778,-0.082229,
-0.023154,0.000957,0.027283,

0.052065,0.033293,-0.030809,
-0.067618,-0.040556,-0.081995,
-0.078520,-0.041390,0.007504,

0.073702,0.025573,-0.009468,
0.061855,-0.033705,-0.051575,
-0.054267,0.004938,-0.053760,

-0.063656,0.034841,-0.066741,
-0.014898,-0.082601,0.030910,
0.002701,0.034702,-0.074572,

-0.028706,0.010717,-0.068945,
-0.082655,0.004991,0.025036,
0.027640,-0.010678,0.059263,

-0.063739,-0.007464,0.062154,
-0.014359,-0.004203,0.004059,
-0.044062,0.072915,-0.017403,

-0.057239,0.023345,0.064186,
0.057355,-0.008918,0.038343,
0.060573,0.064975,0.015364,

-0.049298,-0.068333,-0.028620,
0.005619,0.068514,-0.079614,
0.004842,-0.005349,0.063776,

-0.008842,-0.070034,0.046515,
-0.017808,-0.043269,0.035053,
-0.043698,0.008488,-0.047938,

0.003077,-0.001855,0.019904,
-0.079394,-0.000769,-0.021923,
-0.012323,0.002218,0.029080,

-0.075710,0.057908,0.079944,
-0.069997,-0.049383,-0.067205,
-0.002515,0.040684,0.016819,

0.078581,0.048372,-0.062011,
-0.031280,-0.005738,0.037881,
-0.032219,0.027736,0.032543,

0.007706,-0.061331,0.018297,
-0.007825,-0.005708,0.015531,
0.042548,0.066805,-0.078506,

0.054005,-0.069867,0.033888,
0.009804,-0.030287,0.050021,
0.041603,-0.063301,-0.029121,

0.053908,0.080311,0.061969,
-0.036218,0.063260,-0.066568,
0.039241,0.036164,0.032308,

-0.082953,-0.065316,0.002629,
0.070626,0.038704,0.076496,
0.031736,-0.011667,-0.085562,

0.053859,0.026285,0.078822,
-0.066098,-0.002502,-0.050007,
-0.011578,-0.039431,-0.026595,

-0.048622,-0.052564,-0.025193,
-0.063963,-0.025931,-0.003912,
-0.074889,-0.047951,0.005298,

-0.001224,-0.075054,-0.005990,
0.060701,0.062915,0.003611,
-0.008047,-0.027755,-0.061925,

-0.027616,-0.032633,0.078735,
0.066703,-0.063237,-0.083804,
0.041495,-0.010020,-0.080773,

0.005867,0.072545,-0.007047,
-0.039394,0.074434,0.062446,
0.061570,0.032087,0.004315,

-0.080302,0.015335,-0.015726,
0.055138,-0.044789,-0.055646,
0.028089,0.013009,-0.064541,

-0.047445,0.062931,0.008510,
0.082583,-0.000834,0.030304,
0.057332,0.026311,-0.033039,

-0.002902,0.048343,-0.066946,
-0.042199,-0.012643,-0.064331,
-0.021860,-0.000223,0.002801,

-0.051807,0.029867,-0.002663,
0.004369,0.073038,-0.079112,
0.030992,-0.076363,0.073683,

-0.079514,-0.083467,-0.027155,
0.068709,-0.034561,0.024988,
-0.071611,-0.042449,-0.005650,

0.036518,0.024894,0.056968,
-0.028295,0.023377,0.044842,
0.042501,0.008038,-0.064331,

-0.050853,0.049375,-0.073791,
-0.033430,0.000560,0.061818,
0.057010,0.025233,0.007375,

-0.014615,-0.023493,-0.047371,
0.020894,0.030969,-0.065210,
0.019386,0.003283,-0.023618,

-0.064355,-0.002028,-0.044633,
-0.035874,-0.076998,0.070034,
-0.068868,-0.054138,0.064996,

-0.075740,-0.004335,0.070775,
-0.044291,-0.034754,0.042609,
-0.081043,0.047878,0.063892,

-0.054960,-0.072293,0.007342,
-0.021957,-0.022965,0.006005,
-0.077835,-0.000283,0.024261,

0.033228,-0.032147,-0.077636,
0.028266,-0.022485,-0.076893,
0.072696,0.034114,0.015626,

-0.026972,-0.079067,0.044984,
0.063565,0.006708,-0.051265,
0.020053,-0.045550,-0.007582,

-0.073533,0.032526,0.054501,
-0.042800,-0.085297,0.046129,
0.061874,-0.026468,0.040731,

0.035782,0.038782,-0.030561,
0.010139,-0.019705,0.027077,
0.076489,-0.036599,0.028792,

-0.038999,0.056731,-0.068599,
0.022532,0.061004,-0.065740,
-0.067909,-0.070942,0.025699,

0.000661,-0.053217,-0.008070,
-0.037386,-0.049654,-0.063512,
-0.080209,0.030802,-0.055304,

0.059093,-0.058922,0.023923,
-0.017871,-0.074508,-0.064625,
-0.029406,-0.037156,0.073012,

0.084894,0.034638,0.007042,
0.066922,0.055265,-0.047058,
-0.014452,-0.020573,-0.079756,

-0.074955,0.014201,0.032794,
0.056329,-0.050888,-0.049971,
0.072201,-0.039248,0.025065,

0.047491,0.074101,-0.032421,
0.071505,0.014406,0.007621,
0.050860,0.046117,0.062136,

0.062458,-0.077511,-0.029673,
-0.037155,-0.022805,-0.082339,
-0.029846,0.057863,0.025275,

0.050409,-0.017688,-0.020930,
0.035427,0.049846,0.085062,
-0.079276,-0.015222,0.076231,

0.073055,-0.055805,-0.013843,
0.038106,0.058945,-0.015364,
-0.005399,-0.027128,0.049927,

-0.039850,-0.004111,-0.074900,
0.001916,-0.016029,-0.046793,
-0.039212,-0.023392,0.032117,

0.086401,0.078046,0.029870,
0.031471,0.083817,0.071368,
-0.064442,-0.073917,0.035368,

-0.077547,0.077981,0.055049,
0.000420,-0.044369,0.010825,
-0.039104,0.014424,0.062744,

0.009815,-0.075878,0.079232,
-0.055506,-0.037790,0.004013,
-0.021330,0.033038,0.081021,

-0.079122,-0.009317,-0.065641,
-0.074354,0.021152,-0.026606,
0.050842,-0.077478,-0.070874,

0.009856,-0.074315,-0.062896,
0.064894,-0.048903,-0.043663,
-0.076699,-0.008307,-0.038238,

-0.045332,-0.060840,-0.051343,
0.072316,0.018833,-0.041900,
0.075030,-0.067992,-0.013667,

-0.045716,0.077726,-0.005267,
-0.028079,-0.042083,-0.068073,
-0.023596,0.027926,-0.035921,

0.078934,0.049610,-0.072241,
0.063975,0.025965,0.052063,
0.057972,-0.034541,0.067615,

-0.067193,-0.007143,-0.039920,
0.045281,0.023581,0.013929,
-0.002230,0.042311,-0.045438,

-0.043763,-0.044559,-0.029462,
-0.055086,-0.041146,0.006264,
-0.003149,0.036041,-0.079487,

0.025442,-0.068613,-0.043546,
0.003041,0.072479,0.021582,
0.032616,0.037737,-0.048761,

0.028655,0.017537,0.022744,
-0.061807,-0.068444,-0.031984,
-0.001701,-0.063501,0.012541,

-0.079671,-0.022758,0.063799,
-0.030345,0.047977,0.068910,
-0.043105,0.009156,0.025403,

0.069699,0.079962,0.020369,
0.009997,-0.016202,0.005777,
-0.031434,0.064477,0.049547,

0.036784,0.075828,-0.040902,
-0.008350,0.078747,-0.050178,
-0.060994,-0.048979,0.047906,

0.042908,0.074468,-0.078115,
0.049103,0.080741,-0.061871,
-0.035986,0.008144,-0.015370,

0.082028,-0.020847,0.008427,
-0.003599,-0.044781,0.058069,
-0.005931,0.074180,0.050300,

0.042722,-0.053644,0.003944,
0.061633,-0.059228,-0.059515,
0.012340,0.005066,0.034273,

0.078481,0.061594,0.074794,
-0.003254,-0.040875,-0.083540,
-0.059950,0.078071,0.048222,

-0.052373,0.057964,0.068266,
-0.001342,-0.054027,-0.016241,
-0.052619,-0.064264,-0.066910,

-0.032076,-0.049556,0.024069,
-0.024803,0.059917,-0.055263,
-0.008675,0.023746,0.006776,

0.076937,0.076536,0.069254,
0.031677,0.070200,-0.074783,
0.070282,0.021855,0.033684,

0.021106,0.046025,-0.016236,
-0.037153,-0.061058,-0.066735,
-0.016658,0.048623,0.060490,

-0.024687,-0.077976,-0.019860,
-0.012529,0.005952,-0.065761,
-0.056047,-0.083421,0.036890,

0.064440,-0.075805,-0.015961,
0.051107,-0.035106,0.009988,
-0.011076,0.056931,0.012956,

-0.029603,-0.070023,0.010991,
0.021633,-0.082874,-0.013372,
-0.036724,-0.049316,-0.036763,

-0.023941,0.032148,0.030508,
0.027255,0.023393,-0.030258,
0.029095,-0.043972,-0.007621,

0.043149,-0.018887,0.080147,
0.018588,-0.040228,-0.031780,
0.076917,-0.070278,0.059350,

-0.080020,-0.042361,0.066047,
0.081493,0.077327,0.025264,
0.037186,0.012095,-0.082649,

-0.071588,0.050455,0.009734,
0.079357,-0.031258,0.019092,
0.051672,0.074495,-0.054322,

-0.053481,0.006203,0.006072,
-0.045179,-0.059703,-0.000821,
0.022603,0.000189,-0.029711,

-0.037354,-0.040254,-0.020803,
0.022436,-0.010890,-0.058721,
-0.052215,-0.016504,-0.056701,

0.076297,-0.001063,-0.015498,
-0.014104,0.027615,-0.079257,
-0.042551,0.075354,-0.073908,

0.036581,0.036199,0.075522,
-0.049711,-0.084381,0.071240,
-0.026496,0.062361,-0.018231,

-0.022846,-0.005715,0.028012,
-0.005615,0.056083,0.048372,
-0.001075,0.000648,0.002612,

0.000136,0.011746,-0.030871,
-0.034194,0.058076,0.033858,
-0.024650,-0.021581,0.079510,

0.003856,-0.006580,0.007054,
0.071473,0.022340,0.024523,
-0.052079,0.080562,0.012094,

-0.002199,0.031107,-0.068345,
0.049355,0.051958,0.040063,
0.084308,-0.018817,0.002981,

0.040782,-0.019355,0.019545,
-0.053540,-0.045404,0.031979,
0.032777,-0.044854,0.013978,

-0.013893,-0.011581,-0.044047,
-0.070654,-0.012031,0.061040,
0.075869,-0.038879,-0.072679,

0.029600,0.071884,-0.039130,
-0.055272,-0.006638,-0.085076,
0.044453,0.063909,0.046528,

-0.082217,0.005047,-0.022430,
-0.047453,-0.032110,0.012934,
-0.051123,-0.049829,0.037334,

-0.061488,0.037269,0.015765,
0.051603,0.036489,-0.076185,
-0.018704,-0.066448,-0.078943,

-0.027202,-0.043378,-0.014952,
0.025990,0.010385,0.001298,
0.005078,-0.084718,-0.021046,

-0.057471,-0.051265,0.079806,
0.068171,-0.032503,-0.027828,
0.045439,0.058985,-0.022975,

-0.020925,-0.020008,-0.027069,
0.038380,-0.060397,-0.060493,
-0.011669,0.038019,-0.083684,

0.008752,0.052439,-0.029632,
-0.064878,0.037458,-0.064077,
0.038925,-0.045768,0.019111,

-0.069828,0.083035,0.022058,
0.016929,-0.017987,-0.040880,
0.002904,0.015697,0.044701,

-0.042293,0.050311,0.054541,
-0.059327,0.059793,0.075916,
0.029583,0.078172,-0.059378,

-0.005898,-0.068415,0.029854,
0.049605,-0.063221,-0.042721,
-0.015774,-0.023720,0.040736,

-0.007191,0.078230,-0.014412,
0.042143,-0.039441,0.008109,
0.015760,-0.077132,-0.029195,

0.076198,0.024219,-0.051988,
-0.085608,0.038967,0.045456,
-0.075550,0.051806,0.016355,

0.048761,-0.004880,-0.040015,
0.045425,0.052723,0.079150,
-0.001486,-0.061831,-0.076229,

0.071973,-0.084185,-0.046491,
0.069403,-0.018118,0.048677,
0.045827,-0.079995,0.045088,

0.016783,-0.060181,0.012896,
-0.034259,-0.021119,0.035013,
-0.004504,0.022776,0.065897,

0.005969,-0.028880,-0.045356,
0.005197,0.022753,0.020773,
-0.018904,-0.048162,-0.037004,

-0.030249,0.067371,-0.082926,
-0.053924,0.014999,0.011651,
-0.027634,0.002449,0.083677,

0.085863,-0.044438,-0.030029,
0.018122,-0.034346,-0.050710,
-0.011951,0.031206,0.085950,

-0.028823,-0.063000,0.003584,
0.026390,-0.069703,-0.071231,
-0.065927,0.024203,0.066934,

0.053302,0.043418,-0.012045,
0.067747,-0.020600,0.030697,
0.063230,0.024141,-0.017730,

-0.033540,-0.013475,-0.054074,
0.039051,-0.064749,-0.043812,
-0.046657,-0.000734,0.048726,

0.003882,0.040762,-0.027586,
-0.050501,0.022204,0.010001,
0.000361,0.004186,-0.017977,

0.017483,-0.018710,-0.065076,
0.060716,0.024145,-0.016054,
-0.029037,-0.055874,0.045735,

0.033891,0.065338,0.067950,
-0.049747,-0.010715,0.051094,
0.031327,-0.027235,-0.041768,

0.047364,0.061193,0.071920,
0.070051,-0.078889,-0.085345,
0.068504,0.004846,0.048548,

-0.077085,-0.001899,0.086150,
-0.001689,0.056686,0.017755,
0.021871,-0.037016,0.008923,

0.042260,0.042299,-0.016387,
0.017639,0.019305,0.029191,
0.083652,0.039827,-0.053133,

-0.069873,-0.066315,0.008339,
-0.058625,0.003595,0.073514,
0.038798,0.061110,-0.047207,

0.037643,-0.059443,0.052704,
0.045725,0.080203,-0.004744,
-0.007780,-0.051287,0.005427,

0.069454,0.060964,0.084439,
0.068573,0.006160,0.012998,
-0.062051,-0.043242,0.032565,

-0.040461,-0.053988,0.037071,
0.031627,0.078922,-0.078440,
-0.027305,-0.016077,-0.031070,

-0.077691,0.024546,-0.046777,
-0.030950,0.034844,-0.018691,
-0.002088,-0.048821,-0.053149,

0.034668,0.013156,0.023809,
0.024667,0.077965,0.076537,
0.028025,-0.027342,0.033418,

-0.074025,0.034298,0.013264,
0.050033,-0.017211,0.028051,
-0.025622,-0.011297,0.031506,

0.069301,-0.007482,0.011007,
-0.038450,-0.001964,-0.077054,
0.029432,-0.016654,0.014721,

-0.069145,-0.039865,0.061820,
0.053168,-0.076962,0.075198,
-0.046135,-0.037383,-0.031958,

0.056477,0.078475,0.002559,
0.030899,-0.022742,0.032303,
-0.050099,0.048758,0.066824,

-0.008069,-0.032515,-0.021501,
-0.029088,-0.060220,0.021348,
0.002571,0.057516,0.031225,

0.072167,0.005974,0.037710,
-0.077985,0.020036,0.021137,
0.062529,-0.047016,0.048075,

0.080213,-0.047509,0.086410,
-0.055103,0.018181,0.022243,
0.001709,-0.073634,0.018016,

0.005065,0.016401,-0.030236,
-0.076905,0.062191,0.025672,
-0.047562,0.011988,-0.017659,

0.056474,-0.073284,-0.049722,
0.070571,-0.051066,0.080424,
0.065340,-0.005765,0.010275,

-0.044753,-0.020404,0.058192,
0.004124,-0.038163,0.075611,
0.037427,-0.063228,0.071565,

0.070758,0.061597,0.084537,
-0.074315,0.032687,0.012643,
-0.070304,-0.034189,0.030277,

0.076928,-0.038427,0.030086,
-0.023831,0.055338,-0.040630,
-0.051531,0.035798,-0.038032,

-0.031849,-0.060537,0.004836,
0.024127,-0.034463,-0.028513,
0.037253,0.038174,0.040712,

-0.030274,-0.054896,-0.049976,
-0.008479,0.002431,-0.049758,
0.053795,0.047720,-0.006604,

0.038783,0.017246,-0.039485,
-0.007670,0.017775,-0.031129,
0.065595,-0.044730,-0.063094,

0.044869,-0.075198,-0.047797,
-0.040470,0.044257,0.048627,
-0.021523,-0.054830,-0.059160,

-0.069328,0.071288,0.065532,
0.001297,-0.031782,-0.023256,
0.075036,0.036294,0.058022,

0.035722,-0.019690,-0.047304,
0.048446,-0.002436,-0.066061,
0.050163,-0.075054,0.070255,

0.041577,-0.005016,-0.058281,
-0.013499,0.042068,-0.015372,
0.060170,-0.021107,-0.085773,

0.032455,-0.038019,-0.064688,
-0.061668,0.008033,0.048114,
-0.070965,-0.014657,-0.013691,

-0.065687,0.013226,-0.006269,
0.025481,-0.037906,-0.076495,
-0.029459,-0.086172,-0.057266,

0.008621,0.072144,0.014022,
0.045569,0.040589,0.063157,
-0.018489,-0.063286,0.058744,

0.019855,-0.031027,-0.042073,
0.041589,-0.063175,-0.001523,
0.036809,-0.084502,-0.076337,

0.069837,-0.055503,0.058971,
-0.022097,0.008139,-0.055310,
-0.024106,0.067480,-0.054303,

-0.046485,0.063347,-0.047210,
-0.047787,-0.075414,-0.035336,
0.016037,-0.051640,-0.001010,

-0.084642,-0.068632,0.066200,
-0.069733,0.015572,-0.061979,
-0.045136,0.020872,0.060699,

-0.050483,-0.069825,-0.024202,
0.055044,0.000837,-0.060121,
-0.076430,-0.072327,-0.061773,

0.023348,-0.085324,-0.073259,
-0.021366,-0.017001,-0.006054,
-0.055261,0.025639,0.055500,

0.061992,0.060538,0.046105,
0.079537,0.055306,0.058248,
-0.067232,0.000707,0.003538,

0.046672,-0.030392,0.060584,
0.060726,-0.026006,-0.025681,
0.076753,-0.049918,-0.030195,

-0.025416,-0.079115,-0.035690,
0.020633,-0.052384,-0.077393,
-0.015376,0.037637,-0.016014,

0.079307,-0.075127,-0.015743,
0.018737,-0.014022,0.002279,
-0.084904,0.049054,-0.048040,

0.010151,0.034592,-0.008653,
0.021882,0.013812,0.007272,
0.003340,-0.078310,0.008419,

-0.022825,-0.011478,-0.085797,
0.045487,0.072454,0.041759,
0.028795,-0.001777,-0.072611,

0.074362,-0.019615,-0.066694,
0.019690,0.074522,0.013144,
-0.078182,0.059779,0.067260,

-0.019760,0.009999,-0.012071,
-0.023727,-0.028709,-0.021950,
0.029574,-0.002150,0.035439,

-0.005321,-0.002039,0.063954,
-0.028231,0.041532,0.020478,
-0.014082,0.074154,0.012771,

0.032136,0.051668,0.031294,
0.025078,0.019159,-0.078748,
-0.016814,-0.043482,-0.040386,

0.063317,0.080141,0.055477,
-0.016442,0.060761,0.015238,
-0.072101,0.047639,-0.013977,

-0.076716,-0.081953,0.030095,
0.032675,0.057738,0.011849,
-0.032642,-0.031291,-0.029531,

0.074925,-0.047919,0.033217,
0.042700,-0.053326,0.018233,
-0.020739,-0.070631,0.025483,

0.055959,0.078887,0.074785,
0.050840,0.056137,0.022197,
-0.034476,0.083357,0.059345,

-0.047401,-0.024813,-0.003057,
-0.085902,0.028781,-0.037641,
-0.004224,-0.068683,-0.040338,

0.022342,-0.051074,-0.003691,
-0.026329,-0.070339,0.035025,
0.066554,-0.066813,-0.066848,

0.031512,-0.039748,0.070434,
-0.061113,-0.022181,0.018596,
0.040976,0.000139,0.069538,

0.020095,0.061667,0.011288,
-0.015033,-0.026053,0.000463,
0.079202,-0.007398,0.051664,

0.081011,-0.081951,0.080576,
0.020178,0.074649,0.074547,
-0.048662,0.080448,-0.067214,

0.074212,-0.036861,-0.055248,
0.039236,0.009792,0.054232,
0.035123,0.053352,-0.010039,

-0.064922,0.051808,0.075017,
-0.055676,0.062505,0.076833,
-0.026873,0.044163,0.064679,

-0.019244,0.053246,0.054944,
0.043859,-0.005850,0.063687,
0.005474,0.004004,0.032922,

-0.001256,-0.065765,0.003974,
0.012788,0.032149,0.072630,
0.019206,0.075239,-0.003762,

-0.021054,0.048363,0.038724,
-0.073032,-0.011615,0.086067,
-0.005124,0.036495,-0.079883,

0.084414,0.082433,-0.003747,
-0.038821,-0.050829,-0.036868,
0.070316,-0.070125,0.061230,

-0.053652,0.007973,0.041192,
0.005629,0.042004,0.061393,
-0.028123,-0.003227,0.072357,

0.010744,-0.036615,0.038160,
-0.051840,0.000066,0.024308,
0.070804,0.055481,0.052560,

0.001640,0.046588,-0.008224,
0.043051,0.044027,0.074572,
-0.049122,0.003912,0.026050,

-0.004450,0.012495,-0.026118,
0.018972,0.053275,0.070897,
0.026252,0.008887,-0.062124,

0.042072,0.069773,0.064344,
-0.005626,0.006032,0.066859,
0.019213,-0.013872,-0.004608,

-0.003510,0.044520,-0.006077,
0.062645,-0.030457,-0.037602,
0.063621,-0.074147,-0.070444,

0.049505,0.004821,-0.076479,
0.030842,-0.024381,-0.068754,
0.042402,-0.070937,-0.063528,

0.061007,-0.042442,-0.041935,
-0.074993,0.031233,-0.018839,
0.002412,0.069034,0.038073,

0.019348,0.008914,0.055779,
-0.010439,-0.023131,-0.055543,
-0.018200,-0.032305,-0.019099,

-0.041787,0.044659,-0.013079,
0.084049,-0.025618,0.018707,
0.053419,0.046343,0.003987,

-0.032912,0.048712,-0.051724,
0.065948,0.071448,-0.062172,
-0.033610,-0.053408,-0.044575,

-0.063951,-0.001749,-0.050572,
-0.008791,0.054503,-0.004928,
0.022785,-0.050311,-0.004803,

0.063953,0.031096,-0.067876,
0.073612,0.076927,-0.050085,
0.083694,0.030531,0.002191,

-0.021365,-0.015926,-0.068080,
0.069098,-0.039060,0.031328,
-0.028665,0.034027,0.018260,

0.038277,0.023488,0.009886,
-0.043647,0.078963,0.026407,
0.005083,0.019953,-0.011934,

-0.035192,0.040459,-0.054393,
0.067440,-0.016403,0.053542,
-0.034866,0.079450,0.004913,

0.019652,0.042549,0.030072,
0.076110,0.002733,-0.069705,
-0.014206,0.062880,0.066630,

0.040274,-0.019880,-0.015933,
-0.005704,-0.071314,-0.041131,
0.060471,-0.043155,0.039402,

0.007551,-0.026095,-0.049159,
-0.069294,-0.027947,-0.076103,
-0.007802,-0.002148,-0.052969,

-0.060253,0.023663,-0.031187,
-0.054950,0.002040,0.041344,
0.063013,0.013951,-0.071212,

-0.040179,0.022201,0.030015,
0.068342,0.001803,-0.057019,
-0.032701,-0.077715,-0.048537,

-0.029811,0.023371,0.028382,
-0.018218,-0.042725,-0.077008,
-0.073600,-0.031959,-0.078639,

-0.054722,-0.054239,-0.038661,
-0.026795,-0.003304,0.006791,
0.039646,0.061481,0.055815,

0.076273,-0.029446,0.084034,
0.041667,-0.043369,0.046711,
-0.052681,0.045141,-0.080133,

-0.051050,-0.052210,-0.030128,
0.035686,0.019546,0.038714,
0.005059,-0.008633,0.062476,

-0.068671,-0.005972,-0.017640,
0.079126,-0.029611,-0.056106,
-0.000902,0.067059,0.024504,

-0.010019,-0.010279,-0.008730,
0.080584,0.077381,-0.009549,
-0.057330,-0.079416,0.000846,

-0.009504,-0.076299,-0.001138,
-0.059663,0.067997,0.083308,
0.074587,-0.036505,0.019680,

-0.046296,-0.000507,-0.059826,
0.021244,0.061026,-0.053574,
0.048969,-0.010038,0.006227,

0.022284,0.085862,-0.069650,
0.007409,0.066985,-0.027586,
0.067100,0.056694,0.016820,

-0.006790,-0.027269,-0.083785,
-0.023799,-0.079906,-0.009298,
0.027133,-0.010684,-0.010790,

-0.050907,0.053540,-0.032260,
0.007980,0.033565,0.021909,
-0.020757,-0.061161,-0.050306,

0.084988,0.041546,0.062190,
-0.007465,-0.025040,0.060971,
-0.033364,0.057620,0.023144,

0.076063,-0.018201,0.023112,
0.072330,0.059287,0.041696,
0.023861,-0.000304,-0.047316,

-0.016452,-0.004659,-0.028783,
0.079237,0.020159,0.059479,
0.060534,0.025930,-0.032865,

-0.030243,0.074741,0.063671,
0.004363,0.059891,-0.006531,
-0.011654,-0.042224,0.033770,

0.065807,-0.007507,0.064626,
0.032122,-0.018310,0.082075,
0.076172,0.043366,0.046537,

-0.022134,0.069009,-0.083240,
0.011633,0.081560,0.006872,
-0.044621,-0.027498,-0.067960,

0.023411,-0.053187,0.049225,
-0.024551,0.036722,-0.050440,
-0.056534,0.036740,-0.036422,

0.014095,0.012900,-0.024600,
-0.028918,-0.029697,0.005099,
0.039033,0.086179,-0.000137,

-0.078491,0.009108,0.058450,
-0.001454,-0.050277,-0.042425,
0.057126,0.028739,0.036036,

0.044317,0.026864,-0.073090,
0.067233,-0.032740,-0.003060,
0.038785,-0.019574,0.061137,

-0.031747,0.046118,-0.041311,
0.018370,-0.001656,0.053912,
-0.077280,0.071054,0.034692,

0.014802,0.030221,0.070939,
-0.059584,-0.057559,-0.068931,
0.007361,-0.061447,0.002181,

-0.020402,-0.062197,0.019216,
0.015635,-0.037247,0.022447,
0.017777,-0.030218,-0.037570,

0.068402,-0.058381,-0.036219,
-0.052003,0.026632,0.030140,
-0.058898,0.059417,0.064190,

-0.009281,-0.034379,-0.062865,
-0.041930,-0.012648,-0.015610,
0.041015,-0.042221,-0.047821,

0.042713,-0.023929,0.053279,
-0.010091,0.054903,-0.040641,
-0.053851,0.039611,-0.036606,

-0.042334,-0.022971,-0.064866,
-0.067787,-0.037401,-0.018241,
-0.014964,0.073948,0.039043,

0.080204,0.008443,0.016610,
-0.078619,-0.060281,-0.049323,
-0.077905,-0.042900,0.004626,

-0.003832,-0.048104,0.039013,
-0.024898,-0.050674,-0.058661,
-0.020716,0.066886,-0.067225,

0.070584,0.021930,0.075076,
0.066379,-0.039755,0.030319,
0.071244,-0.019868,0.038425,

0.060532,0.013499,0.025527,
0.047663,-0.078137,-0.038559,
0.034893,0.000017,-0.044879,

0.084350,0.048007,0.011249,
0.018653,-0.010042,-0.071893,
0.005867,0.015038,0.062539,

0.034037,0.000816,-0.048164,
-0.031922,-0.011605,0.035482,
0.030697,0.064716,-0.001996,

-0.043854,0.060038,-0.060191,
-0.034874,0.034001,0.003906,
-0.019654,0.005246,0.045146,

-0.037518,0.025446,-0.051138,
0.079015,-0.071063,-0.019578,
-0.045083,0.023778,0.021872,

0.055343,0.008407,0.050579,
-0.075242,-0.079337,0.050621,
-0.056340,-0.042492,-0.063836,

0.044907,-0.042999,0.014418,
-0.041960,-0.072160,0.036976,
-0.084087,-0.035652,-0.044626,

0.062276,0.033048,-0.035785,
-0.019287,-0.015936,0.047409,
0.004825,0.075754,0.046347,

0.073832,0.074318,-0.068088,
-0.080264,-0.019058,0.069134,
-0.012237,0.047896,0.068728,

0.077081,0.008868,0.021802,
-0.067303,-0.043956,-0.032938,
0.053728,-0.023792,0.078284,

-0.015670,0.065855,-0.048117,
0.039511,0.044784,0.065227,
-0.012464,-0.010377,0.014243,

-0.048075,-0.081356,-0.085974,
0.046170,0.078269,-0.074110,
0.036989,-0.030943,-0.059417,

0.068399,-0.012608,0.071568,
0.015065,0.018774,0.031559,
0.078251,0.002304,0.060337,

-0.045299,-0.000163,-0.022981,
0.000066,0.062511,0.042892,
-0.040750,0.069699,0.068540,

-0.046942,0.003260,-0.012008,
0.050961,0.066806,-0.002821,
-0.023541,0.076758,0.040712,

0.076067,0.028843,-0.027179,
0.016859,-0.081127,-0.082010,
0.037662,-0.049448,-0.071325,

-0.080126,0.002298,0.075261,
0.048859,-0.025391,0.023421,
-0.070224,0.047318,-0.031347,

-0.060942,-0.076119,-0.061411,
0.003726,0.001467,0.072618,
-0.046981,-0.003734,0.076603,

0.027574,-0.049210,0.046809,
-0.027085,-0.063324,-0.052096,
0.023973,0.072031,-0.017382,

0.045233,0.021191,0.063715,
-0.031004,-0.007695,0.026983,
-0.000474,-0.003170,0.022496,

-0.054871,-0.084387,-0.000036,
-0.024468,0.076645,0.038642,
-0.015715,-0.024094,0.015974,

-0.017627,0.004485,-0.027591,
-0.028555,0.007416,0.002906,
0.068138,0.057862,0.040964,

-0.020575,-0.046403,-0.042815,
0.055277,-0.038162,0.063275,
0.017037,-0.072112,-0.023737,

-0.079187,0.023246,-0.036452,
-0.011491,-0.068225,-0.019306,
0.059518,0.020995,-0.073560,

0.002004,-0.034642,-0.077841,
-0.000350,0.051018,0.052913,
0.077392,-0.024815,0.051069,

0.050044,0.014299,-0.048630,
-0.059013,0.010379,-0.010897,
-0.022001,-0.075720,-0.049250,

-0.040734,0.039242,-0.016753,
0.001132,-0.040570,0.028042,
0.034679,-0.010728,0.039216,

0.029662,0.010394,0.051563,
0.056105,0.011106,-0.053629,
-0.053994,-0.032305,-0.079476,

0.073885,-0.074190,-0.007944,
0.063769,-0.078599,0.008467,
-0.078855,-0.043092,0.035678,

-0.011470,-0.062209,-0.066411,
-0.050454,0.072906,-0.073232,
-0.081142,-0.081695,-0.000598,

0.011064,0.060496,-0.009580,
-0.045869,-0.069581,0.037895,
0.046619,0.021400,0.010687,

-0.048505,-0.068286,0.074156,
-0.037956,-0.086189,0.045530,
-0.026353,0.024961,-0.010453,

0.010677,0.072080,-0.006632,
-0.022471,-0.073980,-0.011934,
-0.039399,-0.027465,0.042755,

-0.003551,-0.015315,-0.085982,
0.023022,-0.040499,0.023843,
0.017490,0.018207,-0.043975,

-0.035040,-0.034836,-0.062459,
0.068743,0.061604,-0.021377,
-0.008139,0.062828,0.045459,

0.065781,0.009928,0.000140,
0.008035,-0.063770,0.057290,
-0.030415,-0.064388,0.002136,

0.076011,-0.000222,-0.058406,
-0.046044,0.023996,-0.005345,
0.010407,-0.050196,-0.079976,

0.054756,-0.002623,0.071388,
0.067627,0.025242,0.073352,
-0.068744,0.066486,-0.008874,

-0.012489,-0.072623,0.014907,
-0.005857,-0.044891,-0.071761,
-0.004326,-0.045576,-0.003574,

0.057266,-0.041261,0.015060,
-0.069250,-0.043772,0.008453,
-0.058784,-0.003455,0.006502,

0.045300,-0.047512,0.056488,
0.001516,-0.043840,-0.013849,
-0.033446,0.017321,0.002820,

0.061746,0.062295,-0.065948,
-0.021839,0.032071,0.041884,
-0.072401,0.027395,-0.037786,

-0.046907,0.058633,-0.043136,
0.054667,-0.048903,0.061720,
0.020773,0.081448,-0.077849,

-0.045152,0.000914,-0.054083,
-0.042662,-0.038373,-0.026969,
-0.065331,-0.036366,-0.048594,

0.052302,-0.038896,0.021844,
-0.051267,-0.001496,-0.048941,
-0.040761,0.022896,-0.017043,

-0.039628,-0.027483,0.075891,
-0.038687,0.071590,-0.060575,
0.012463,0.012342,0.002613,

-0.086376,0.035056,-0.049653,
-0.083284,0.002919,-0.077945,
0.010319,0.053571,-0.032599,

0.052123,-0.006227,-0.075322,
0.036314,-0.051862,-0.067794,
0.056380,-0.069332,0.017434,

-0.004163,-0.062517,-0.040064,
0.002299,-0.020771,0.070363,
-0.071993,0.076706,0.049309,

0.017618,0.037037,0.005444,
-0.054534,-0.054476,0.044859,
0.061616,-0.063457,0.034594,

0.030435,-0.012372,-0.022295,
-0.027464,0.000289,-0.046018,
-0.010742,-0.046485,-0.005323,

0.001072,-0.036635,-0.048909,
0.036489,-0.062058,0.047505,
0.044190,0.069327,0.015917,

0.051585,-0.044358,-0.002130,
0.008379,-0.052476,0.078106,
0.008686,-0.002980,0.051306,

0.045653,0.068056,-0.062469,
0.007867,0.065446,0.038254,
0.016468,0.083999,-0.026513,

-0.038149,0.069086,-0.037700,
0.083214,0.076982,0.058624,
-0.021111,-0.074740,0.025904,

-0.030034,-0.035480,0.032993,
-0.052940,-0.054062,-0.001474,
-0.054832,-0.071949,-0.016894,

-0.019474,-0.026976,-0.012437,
0.072717,0.011314,-0.039964,
-0.045228,0.026467,0.054402,

0.069228,-0.062547,-0.059064,
-0.054977,0.055233,0.058376,
0.071686,0.058166,0.080747,

0.056524,0.083370,0.049084,
-0.004852,-0.011346,-0.018696,
-0.038397,0.040073,-0.007501,

0.047817,0.084454,0.038332,
-0.042226,0.016676,-0.035211,
0.003655,-0.039055,0.058780,

-0.075613,0.038394,0.002063,
-0.072800,-0.055725,0.000303,
-0.022041,-0.004984,0.014409,

-0.036096,0.055178,-0.022617,
-0.071697,-0.064532,0.065567,
0.083998,0.042218,-0.057605,

0.046606,-0.025198,0.063697,
-0.007518,0.058283,0.065351,
0.010236,-0.002463,-0.079613,

-0.046301,-0.042355,-0.044750,
-0.024308,-0.015543,-0.045399,
0.073333,-0.047355,0.025755,

-0.010620,0.016673,0.039018,
0.050928,0.075086,0.061984,
-0.062130,0.068667,-0.013733,

-0.001797,0.003923,-0.067222,
-0.073896,-0.063236,-0.046286,
0.077189,0.010552,0.025452,

0.010050,-0.073407,0.068894,
0.070814,0.003220,0.063522,
-0.050169,0.081814,0.086479,

0.059490,0.045199,0.006794,
-0.023142,0.074871,-0.059864,
0.074573,0.073826,0.015062,

0.035200,-0.081472,-0.054047,
-0.007785,0.046601,-0.072047,
-0.008835,-0.067681,0.035017,

0.009615,0.055844,-0.068718,
0.035466,-0.008279,0.056200,
-0.057761,-0.031314,0.000584,

-0.067179,0.032419,0.026617,
0.033315,-0.065617,0.085085,
-0.017058,0.011655,0.031583,

0.048505,0.022517,-0.042346,
-0.033662,-0.000773,-0.016687,
0.017559,-0.079167,0.002502,

-0.026101,0.027284,-0.069078,
0.008687,0.017226,-0.080290,
-0.065849,-0.058437,0.052754,

-0.061222,-0.025212,-0.019858,
0.001261,-0.023279,0.075955,
0.071787,0.046256,0.068434,

0.061733,0.047451,0.020201,
-0.027857,-0.017249,0.066290,
0.079582,-0.083198,0.043913,

0.022133,0.030503,-0.065006,
-0.063791,0.031948,-0.023889,
-0.042376,0.074608,-0.076283,

0.028391,-0.020864,-0.028380,
0.012586,-0.013083,-0.031948,
-0.074273,-0.074150,-0.046070,

0.037715,0.040117,0.070081,
-0.076165,-0.060672,-0.036244,
-0.052533,-0.074451,0.064984,

0.084514,0.017965,-0.083090,
-0.054609,0.000933,0.044882,
0.079054,0.074927,0.043301,

-0.064071,-0.051455,0.071989,
0.040912,-0.032680,0.028280,
0.027797,0.029379,0.017947,

-0.015810,0.078717,-0.084034,
-0.085792,0.071960,0.009931,
0.043916,-0.011332,-0.000605,

-0.059929,-0.084987,0.036461,
-0.058262,0.006596,0.048509,
0.074018,-0.076792,0.038927,

0.034128,0.011286,0.040935,
-0.006100,-0.064449,-0.054394,
-0.064068,-0.077371,0.073487,

0.046264,0.047898,-0.027508,
-0.006051,-0.026100,0.017636,
0.014654,-0.038464,0.030992,

-0.058217,0.024534,0.034293,
0.051038,0.049157,0.065090,
0.049821,-0.074222,-0.072221,

-0.042709,0.031000,-0.081804,
0.034706,-0.030668,-0.046913,
0.063967,0.032024,-0.085450,

0.006667,-0.072932,0.020208,
0.015764,-0.012318,0.007374,
-0.007820,-0.083389,0.038539,

-0.000243,0.039261,-0.037872,
-0.032731,0.059952,-0.031500,
0.042784,0.023107,-0.059098,

0.031774,-0.041957,-0.060406,
0.009937,-0.014511,-0.020320,
0.037808,0.037011,-0.057044,

-0.024932,-0.008006,0.002905,
0.045603,0.039682,0.035830,
-0.014236,-0.035607,0.049507,

0.058741,0.027396,0.022913,
0.062434,0.071014,-0.036066,
-0.050126,0.036180,-0.009817,

0.035779,0.045781,-0.054994,
0.021434,0.049723,-0.056469,
-0.005228,0.022106,-0.032734,

0.013282,0.036695,0.058668,
-0.019036,0.011597,-0.041083,
-0.018792,-0.075116,-0.010199,

0.054906,-0.078016,-0.006035,
-0.025483,0.000481,0.019199,
0.077696,-0.059014,-0.004466,

-0.009052,-0.053848,0.032781,
-0.071136,-0.032426,-0.037339,
-0.028771,0.063277,-0.017732,

-0.079656,-0.035326,0.014123,
0.016262,0.007115,0.023960,
0.059175,0.002961,0.054739,

0.039632,0.052981,0.081954,
-0.015289,0.001836,0.068460,
0.069720,0.083347,0.005916,

0.079669,-0.056524,0.035717,
0.057497,-0.010864,-0.061331,
0.072162,-0.011815,-0.061858,

-0.026797,-0.064199,-0.059866,
0.021400,0.062260,0.030150,
-0.053973,-0.057729,0.017925,

0.076420,-0.065758,0.011411,
0.063570,-0.029395,0.069978,
0.066925,0.062157,0.008553,

0.064884,0.078998,-0.013992,
0.018408,0.048679,0.067250,
0.083677,0.009574,-0.060220,

0.049972,-0.009544,0.057188,
0.040560,-0.004591,-0.030662,
-0.038530,0.018172,0.004694,

-0.012662,-0.004694,-0.002311,
-0.055007,-0.064125,0.009521,
-0.077577,-0.079904,0.079637,

0.049900,-0.027336,0.052515,
0.054614,-0.078938,0.082328,
0.002000,0.074130,0.071106,

-0.068904,0.003619,-0.064493,
-0.063147,0.046721,0.051482,
-0.036109,0.056693,-0.056189,

0.050171,0.033203,-0.047460,
-0.050361,-0.017468,0.013566,
-0.029332,-0.078553,0.027685,

-0.018193,-0.047436,-0.006068,
-0.010273,0.084513,0.024398,
-0.012123,0.019245,0.064391,

-0.037818,0.084173,0.066850,
0.078674,0.049251,0.065197,
-0.063051,-0.023487,0.063275,

-0.003053,-0.078061,0.035594,
0.062657,-0.077147,0.037396,
-0.062872,-0.068252,0.044702,

-0.072733,0.065114,-0.065794,
-0.058005,-0.072511,-0.002802,
-0.041388,0.078482,-0.040294,

-0.030080,-0.071224,0.076887,
0.022259,0.004524,-0.055314,
0.081132,0.016890,0.018826,

0.000152,0.061845,0.041264,
0.085959,-0.042013,0.029469,
-0.040411,0.025457,-0.066115,

-0.045500,-0.035435,-0.013348,
-0.006839,0.014342,-0.001679,
0.086063,0.032131,0.048828,

-0.039638,0.027719,-0.059272,
0.070867,0.000602,-0.038181,
-0.007482,0.077968,0.079094,

0.002714,-0.005930,-0.023251,
0.029862,-0.009214,0.036540,
-0.002580,0.012677,0.013618,

-0.002413,-0.037283,-0.030841,
0.026294,-0.058225,-0.046975,
-0.063993,-0.045619,0.022878,

0.021725,-0.027329,-0.019584,
-0.051458,0.079951,0.054150,
0.085400,0.071242,0.027624,

0.002766,-0.039902,-0.073742,
-0.061085,0.022341,-0.022956,
-0.063153,-0.009215,-0.061077,

-0.041723,0.045973,-0.080579,
-0.043304,-0.015700,-0.052280,
0.023837,0.045627,0.011234,

0.052752,0.052180,-0.008414,
-0.057203,-0.041875,-0.014088,
0.085894,-0.003615,0.082398,

0.047495,0.016665,-0.072515,
-0.049106,0.086457,-0.067839,
-0.064209,-0.044456,0.077154,

0.085532,-0.065650,0.080504,
0.000994,-0.032126,0.080349,
0.020207,0.076669,0.055008,

0.038269,-0.018869,-0.064729,
-0.017010,0.064240,0.008110,
0.019140,0.072095,-0.080018,

-0.009451,-0.056087,-0.070577,
0.052251,-0.014873,0.012226,
-0.009390,-0.025665,0.058150,

0.011945,0.023051,0.008776,
-0.049098,0.065486,-0.051524,
0.065681,-0.014642,-0.011129,

0.028018,-0.013154,-0.062380,
-0.000814,-0.013501,-0.076609,
0.027590,-0.014524,0.049070,

0.071452,-0.008520,-0.045502,
-0.058322,0.070696,-0.054225,
0.074743,-0.043543,0.002734,

0.082911,0.077411,0.014809,
-0.021356,-0.039599,-0.064849,
0.081374,0.058231,-0.003020,

0.079046,-0.025646,0.033578,
-0.015276,0.016114,-0.014262,
-0.039463,0.014580,0.011480,

-0.074504,-0.025842,-0.055769,
0.039178,0.015846,-0.054774,
0.002542,-0.033344,-0.029526,

-0.068125,-0.032198,0.041031,
0.039213,0.016271,0.019669,
-0.069974,0.043415,0.061113,

0.043891,0.019075,0.056422,
-0.074417,0.044088,0.007424,
0.077089,0.038206,0.020526,

0.052016,0.064944,0.037826,
0.009196,0.010976,0.058064,
-0.037612,0.033323,-0.029588,

-0.077345,-0.014111,0.059362,
0.085340,0.013588,0.019495,
0.063926,0.071416,-0.010681,

-0.053874,-0.002607,0.055175,
-0.044780,0.039903,0.023253,
0.043825,-0.032634,0.012968,

-0.014938,-0.057174,0.047888,
-0.019991,0.027878,-0.003513,
-0.058397,0.030207,0.013540,

0.084825,-0.051275,-0.027216,
0.084479,0.060800,-0.035059,
-0.005115,0.050537,0.000077,

-0.017729,0.065346,-0.011552,
-0.038955,-0.010665,0.027826,
0.040008,0.062273,-0.042185,

0.038542,0.008550,0.020148,
0.041235,-0.062905,-0.072984,
0.048747,0.021606,0.021848,

-0.040319,0.050647,0.013816,
0.025444,0.071384,-0.001276,
0.065152,-0.005573,-0.058751,

0.068884,0.040989,0.041446,
0.074812,-0.078290,-0.065566,
0.013515,-0.013404,-0.057704,

0.068646,-0.046104,-0.060449,
0.059855,-0.072000,0.062442,
0.044219,0.007948,-0.053204,

-0.033947,-0.002815,0.035474,
0.015590,-0.059016,0.036409,
0.057526,0.032206,0.052112,

-0.004389,-0.078455,0.021578,
0.010473,0.014938,0.083232,
-0.053894,-0.008870,-0.063493,

-0.003262,-0.039777,0.085422,
0.057345,-0.041111,0.032482,
-0.076945,-0.015675,0.079518,

-0.006465,-0.054572,-0.017492,
0.063396,-0.036709,-0.069700,
0.016778,0.028990,0.030507,

0.035186,-0.059885,-0.054641,
-0.069714,0.031056,0.060425,
0.001801,0.003436,0.062094,

0.021829,0.028932,0.050678,
-0.036824,0.036029,-0.034610,
0.043107,0.017677,0.028863,

0.053260,-0.077767,0.074782,
0.052196,-0.051754,-0.019416,
-0.058143,-0.043865,-0.040192,

-0.015127,0.077962,0.018159,
-0.065279,-0.074415,-0.049449,
-0.040542,-0.001531,0.061859,

-0.041922,-0.015169,0.080739,
0.054646,0.073406,-0.001919,
0.011204,-0.050091,-0.000548,

-0.067323,0.017491,0.065238,
-0.051183,-0.050992,0.029465,
0.019354,0.053403,0.080811,

0.081338,0.058284,0.058085,
-0.004920,0.046070,0.054813,
-0.034685,0.034098,-0.075809,

-0.051089,0.046013,-0.031211,
0.072394,0.060861,-0.021494,
0.033113,-0.034360,-0.051396,

0.012045,0.033939,0.009732,
0.064500,-0.012297,0.054468,
-0.071388,-0.066813,-0.073914,

0.058867,0.058553,0.064506,
0.029212,-0.073177,-0.051514,
-0.074319,-0.065813,0.044220,

0.028156,-0.074950,0.077618,
0.066735,-0.055073,0.068814,
0.062142,0.054141,0.062135,

-0.060837,-0.073578,0.061871,
-0.041938,-0.006767,-0.022118,
-0.044035,0.016784,0.039124,

-0.067542,-0.046616,-0.047289,
-0.065406,0.035873,-0.073850,
-0.032084,-0.074268,0.042326,

-0.041915,-0.062471,-0.040298,
0.036915,0.076025,0.080243,
0.047547,0.037046,0.028457,

-0.067107,-0.079674,0.064350,
-0.037832,0.028584,0.004067,
0.023849,-0.075447,-0.017160,

0.085462,0.041343,-0.010222,
0.068678,-0.030441,-0.003467,
-0.037445,0.014872,0.065461,

0.044335,-0.058469,0.024930,
-0.053604,-0.051179,-0.063232,
0.017614,0.022065,-0.022311,

-0.011059,0.069872,-0.041245,
-0.045331,-0.064447,-0.010220,
0.013820,-0.060170,0.039019,

-0.070171,-0.053783,0.038476,
0.010068,0.048845,-0.057494,
0.006347,-0.083451,0.053226,

0.042573,-0.000789,0.030250,
0.078495,-0.030640,0.027457,
-0.064956,-0.036507,0.070942,

0.046497,0.041381,-0.052534,
-0.057784,-0.002445,0.076293,
0.067906,-0.064141,-0.068011,

0.012600,-0.073689,0.061519,
0.053675,0.027768,-0.046003,
-0.003514,0.039514,0.045796,

0.006559,0.006797,-0.028226,
0.010744,-0.015701,-0.008945,
0.008139,0.052834,0.015063,

0.065373,0.011661,0.033411,
0.022609,-0.078461,-0.031876,
-0.015558,-0.070422,-0.079457,

-0.006550,0.060454,-0.048205,
0.060285,0.066297,-0.019478,
0.068407,0.019587,-0.003590,

0.052900,0.085326,-0.027661,
-0.036575,-0.057382,0.035427,
0.083181,-0.067353,-0.075179,

-0.066180,0.047975,0.043900,
-0.069265,0.072486,0.012421,
-0.051815,0.071263,-0.028888,

0.057265,0.017107,-0.025826,
-0.002263,-0.038342,0.074043,
0.018045,-0.055888,0.079996,

0.028072,0.071913,-0.049734,
0.075579,-0.048663,-0.040659,
0.003106,0.005511,-0.051238,

-0.039950,0.013928,0.081381,
0.070960,0.032975,0.030305,
0.051654,0.051240,-0.047479,

0.056939,0.022940,-0.010369,
0.058005,-0.066529,0.030528,
0.071260,0.028971,0.004802,

-0.061756,0.051852,-0.072550,
0.029287,0.001387,0.002911,
-0.057570,0.009286,0.028274,

0.024950,0.001237,-0.075748,
-0.015565,-0.016387,0.022696,
0.055087,0.055404,-0.073274,

-0.054104,-0.013156,-0.021813,
0.021347,-0.036399,0.042536,
0.073711,0.056193,0.084922,

0.009626,0.074545,-0.041189,
0.040394,-0.039557,0.020731,
0.021659,0.069918,-0.006398,

0.043944,-0.060424,0.065299,
0.036177,0.006544,0.033220,
-0.049291,0.005599,-0.037917,

-0.015502,-0.071318,0.033436,
-0.077517,-0.056139,-0.037336,
-0.034683,-0.079018,0.026574,

0.074295,0.067889,0.022916,
0.068321,-0.033988,0.082034,
-0.013957,-0.070424,-0.074864,

0.010982,0.021884,-0.000145,
-0.006729,0.083520,-0.006278,
-0.016826,-0.044046,0.019586,

-0.015374,-0.010766,0.017704,
-0.061612,0.036386,0.066562,
-0.010780,-0.048044,0.038102,

-0.010374,0.040300,0.080231,
0.025971,-0.066489,0.003947,
-0.008292,0.010260,0.060276,

0.029643,0.046745,0.010479,
-0.051974,0.005595,0.055056,
-0.070839,-0.022078,0.082622,

0.055513,0.018913,0.071803,
-0.064935,0.034714,0.063080,
-0.077101,0.081852,0.010017,

-0.040571,0.036992,-0.025706,
0.026516,0.046867,0.033673,
-0.018073,-0.062315,-0.020848,

0.022530,0.075763,0.042366,
0.030387,-0.077216,0.055712,
-0.046934,-0.040356,-0.056649,

0.053518,-0.030286,0.074848,
0.023857,-0.014773,-0.052984,
0.079198,-0.049110,0.080738,

-0.067404,-0.032294,0.017204,
-0.055751,-0.033444,0.052648,
0.015520,0.084290,-0.051333,

0.042951,0.049789,-0.059778,
0.081588,0.050818,-0.043238,
-0.068159,0.050200,-0.048231,

0.008659,-0.039633,0.050381,
-0.071172,0.002281,-0.073854,
0.006854,0.057808,-0.060688,

-0.007295,0.020469,0.069753,
0.044447,-0.049891,-0.005222,
0.061505,0.045361,0.045425,

0.075288,0.045702,-0.080510,
0.028406,0.017667,0.037687,
-0.050887,0.067982,0.020734,

0.027554,-0.065671,0.052490,
-0.036326,0.062588,0.013372,
0.018862,-0.033441,0.009518,

0.036844,0.037271,0.045778,
-0.036023,-0.070400,0.056920,
0.026599,-0.062822,0.023378,

-0.068595,0.008411,-0.017573,
0.047303,-0.050405,0.009971,
-0.023057,-0.076415,-0.017339,

-0.018923,-0.028808,0.045044,
0.056291,0.063207,0.036284,
-0.079579,0.022976,-0.007180,

0.000366,0.023216,-0.005632,
-0.048943,0.073002,-0.010185,
-0.041432,-0.053524,0.078279,

0.038736,0.024863,-0.035709,
0.071749,0.013796,0.034401,
0.013188,0.066553,-0.017671,

-0.005688,-0.047613,0.025841,
0.063275,-0.056509,-0.060491,
0.024626,-0.064342,0.043042,

-0.084062,0.047873,-0.036720,
-0.016214,-0.061715,-0.000169,
0.012201,-0.030785,0.000414,

0.038791,-0.034303,-0.065821,
0.022505,0.020858,-0.043997,
0.008267,0.044649,0.071937,

0.028479,-0.060799,-0.045398,
0.016246,-0.061807,-0.047634,
0.083005,-0.063904,-0.073949,

0.075531,-0.057717,0.064959,
-0.040873,0.044472,0.050744,
-0.014701,-0.063360,0.005925,

-0.060866,-0.058498,-0.075117,
-0.009723,-0.063268,0.050875,
0.020834,0.067462,-0.038907,

0.070308,0.027871,-0.024422,
-0.054689,-0.036001,-0.075827,
-0.064814,-0.041961,0.077317,

-0.071577,0.022944,-0.084909,
-0.065228,-0.018327,-0.027721,
-0.001757,-0.065859,-0.026132,

-0.003225,-0.084641,-0.014532,
0.032283,0.062986,-0.024754,
-0.075676,0.045650,-0.064559,

-0.084182,-0.070918,0.056569,
0.015920,0.059638,-0.026608,
0.056254,0.058384,-0.040613,

0.029302,0.069083,0.076597,
-0.034567,0.057335,-0.024180,
-0.035805,0.008780,-0.055443,

0.031861,0.038686,0.030349,
-0.060401,-0.062536,0.039494,
-0.026356,0.070464,0.007892,

-0.062075,-0.029996,-0.075229,
-0.004547,-0.070288,-0.001861,
-0.040383,-0.020569,0.076450,

-0.011285,0.006081,-0.009440,
-0.011244,0.021955,0.038559,
-0.036203,-0.034121,0.002268,

-0.040476,0.019716,-0.030734,
-0.035384,-0.057941,-0.031406,
-0.066121,-0.056449,0.038892,

-0.010325,0.013980,0.015952,
0.029191,0.036944,0.065699,
0.059699,-0.011771,0.001053,

-0.079855,0.015277,-0.042716,
0.005304,0.011395,-0.015022,
0.006531,-0.033351,0.037127,

0.007009,-0.053703,-0.064539,
-0.078965,-0.020133,-0.034948,
-0.012281,0.040301,-0.050113,

-0.079782,0.075862,0.008133,
-0.070756,0.072118,0.055696,
0.045575,0.042575,0.029698,

-0.056777,0.038847,-0.013665,
0.070903,0.031987,0.053474,
-0.034052,-0.047998,-0.065957,

0.042397,0.038263,0.043277,
-0.031103,0.047471,-0.086089,
-0.062383,0.075254,-0.019828,

-0.007602,-0.013159,-0.020148,
0.060219,-0.050460,-0.024960,
0.026515,0.063050,0.013322,

-0.021679,0.032521,0.050664,
-0.028977,-0.016265,0.008896,
-0.034144,0.008534,-0.021267,

0.046163,-0.058683,-0.042335,
-0.025687,0.063944,-0.054209,
-0.078280,-0.071704,0.028651,

0.024963,0.072607,0.017286,
0.002205,-0.007224,0.059585,
-0.008971,0.065203,-0.065295,

0.017988,0.063667,0.063240,
-0.081926,-0.058130,-0.020129,
0.022839,0.078922,0.066146,

-0.082593,0.020541,-0.052161,
0.011580,0.055394,-0.045671,
0.062423,0.069380,0.033922,

-0.018979,0.006325,0.045933,
-0.064414,0.027797,0.003281,
-0.012646,-0.021686,-0.073786,

-0.070483,-0.058074,0.026969,
0.032603,0.015529,-0.071783,
0.031842,-0.079500,0.074797,

0.059951,0.055205,0.038632,
0.054505,-0.072351,-0.051032,
0.078577,-0.079986,-0.065814,

-0.049921,0.001336,0.008304,
0.056318,-0.082695,0.028264,
-0.047180,-0.030375,0.015861,

0.023988,0.068657,-0.035809,
0.047059,0.016544,0.027546,
0.057851,-0.011845,0.057318,

-0.051800,-0.073597,-0.045395,
-0.042757,-0.048825,-0.008251,
-0.082429,-0.011653,-0.035654,

0.022721,0.013459,-0.039125,
0.063945,0.022000,-0.016331,
0.050786,0.066055,-0.005674,

0.055403,0.003916,0.064054,
-0.081640,0.011369,0.046860,
0.031815,0.020687,-0.037479,

0.003395,0.039511,0.067638,
0.005901,-0.040975,0.035580,
0.050413,0.011268,-0.002948,

-0.062542,0.052883,-0.011654,
0.074320,-0.023190,-0.038763,
0.013213,0.042167,0.035806,

0.036218,-0.046157,-0.047997,
0.076344,-0.084966,-0.066138,
0.011805,0.073356,-0.013060,

-0.063536,0.063257,-0.054274,
0.004637,0.041484,-0.008303,
0.032591,0.006389,-0.068001,

-0.066155,0.033060,0.055702,
0.044160,0.055746,0.043807,
-0.036155,0.037678,-0.070814,

-0.025515,0.056328,-0.016766,
-0.071060,-0.068886,-0.081116,
-0.011348,0.053751,0.000952,

-0.018024,-0.015515,0.038627,
0.073972,-0.071098,0.050909,
0.072313,-0.018288,0.054571,

-0.046964,0.019986,-0.052724,
0.074859,0.058380,0.014595,
0.049572,-0.063840,-0.015640,

0.074339,0.079399,0.071293,
-0.051638,-0.048162,-0.013738,
0.043384,-0.046377,0.064430,

0.034039,0.058888,-0.002999,
-0.060284,-0.015997,0.029718,
0.023584,0.025378,0.031034,

0.079338,0.012471,-0.035889,
-0.074498,0.025519,-0.064493,
0.002726,0.006097,0.058650,

-0.072268,0.003772,-0.008818,
0.047733,0.015705,0.069682,
-0.083725,0.055023,0.070504,

0.016229,0.076806,0.004375,
0.032273,-0.006318,0.075963,
0.024585,-0.005647,-0.052722,

-0.083973,0.063642,-0.056288,
-0.059931,0.001359,0.045332,
-0.075060,-0.052837,-0.005861,

-0.041112,-0.070352,0.037013,
-0.066462,0.033401,-0.025808,
-0.065697,0.078835,0.040377,

-0.022605,0.009943,0.005047,
0.016059,0.013172,0.016020,
0.051581,0.010260,-0.014233,

0.064735,-0.064099,-0.060878,
-0.031386,-0.029696,-0.080741,
0.063006,-0.076132,-0.042649,

-0.002463,-0.030987,0.034112,
-0.074115,0.025345,0.067855,
0.014231,-0.063591,-0.071293,

-0.065401,0.065301,0.057615,
0.046336,-0.029471,0.046596,
-0.002243,0.026844,0.001629,

