#ifndef __CNNWeights_Layer4_1_H__
#define __CNNWeights_Layer4_1_H__

#define num_dense_layer2 128
#define num_wt_elements_layer4 num_dense_layer2

const float Layer_4_Weights[num_dense_layer2] = {-0.245792,
0.212388,
-0.203554,
-0.183698,
0.235560,
-0.049808,
-0.281426,
0.192362,
-0.218585,
-0.266633,
-0.364794,
-0.196385,
0.306741,
0.243646,
0.182704,
-0.461590,
0.146381,
-0.516970,
-0.225945,
0.028547,
-0.208984,
0.495072,
-0.316149,
-0.165823,
-0.214999,
-0.281175,
-0.207558,
-0.020412,
-0.234738,
0.093831,
0.189092,
-0.075636,
0.094046,
0.225163,
-0.247067,
-0.197977,
-0.233118,
0.062064,
-0.241653,
-0.241810,
0.168678,
0.184204,
0.262565,
0.215679,
0.171186,
0.267471,
0.110441,
0.127960,
-0.270204,
0.141831,
-0.216703,
-0.236439,
0.179513,
-0.005535,
-0.267565,
-0.034091,
-0.010010,
0.149392,
-0.240623,
0.199982,
-0.291067,
-0.051175,
-0.270368,
0.149248,
-0.245784,
0.350561,
0.131180,
-0.007675,
0.183475,
0.000345,
-0.212938,
-0.233577,
-0.232958,
0.167160,
0.192475,
0.114941,
0.319645,
0.019192,
0.143360,
-0.249604,
0.190225,
0.154711,
-0.226841,
-0.237675,
-0.401272,
0.177664,
-0.203857,
0.188587,
0.284984,
0.023979,
-0.025871,
0.270015,
-0.208614,
-0.278928,
-0.109041,
0.415275,
0.169517,
0.231889,
0.129682,
-0.023806,
0.346535,
0.035928,
0.048019,
-0.298970,
-0.277676,
0.219896,
-0.264940,
0.099661,
0.081848,
0.253700,
-0.207405,
0.165522,
-0.006058,
-0.024341,
-0.146915,
-0.110708,
-0.223526,
0.187936,
0.141903,
0.239739,
0.205852,
-0.014394,
-0.221560,
-0.305182,
0.025189,
0.394153,
0.224753,
0.072509,
};

#define Layer_4_Bias 0.179743

#endif