#ifndef __CNNWeights_Layer1_H__
#define __CNNWeights_Layer1_H__

#define size_layer1 64

#define num_filters_layer1 32
#define kernel_size_layer1 3
#define num_channels_layer1 3
#define num_wt_elements_layer1 (num_filters_layer1 * kernel_size_layer1 * kernel_size_layer1 * num_channels_layer1)

#define pool_size 2
#define pool_stride 2

const float Layer1_Weights[num_wt_elements_layer1] = {
-0.027727,-0.012533,-0.132730,
-0.134499,-0.155480,-0.149487,
-0.001553,-0.204629,-0.052117,

-0.190257,-0.097313,-0.048514,
-0.064699,-0.176648,-0.196399,
-0.022941,-0.222310,0.014566,

0.072847,-0.004437,-0.100704,
-0.172368,-0.047463,0.000275,
0.020526,0.014482,-0.153884,

-0.256344,-0.479195,-0.479700,
-0.320426,-0.440430,-0.406632,
-0.329325,-0.514058,-0.386841,

-0.057551,-0.061592,-0.163304,
-0.179697,-0.046052,-0.232218,
0.038025,-0.120204,-0.284557,

0.398452,0.338101,0.456760,
0.428364,0.423583,0.647869,
0.300157,0.462379,0.519551,

-0.239918,-0.529610,-0.203970,
-0.272237,-0.639046,-0.600980,
0.334023,-0.080347,-0.358274,

0.189561,-0.292190,-0.045872,
0.229275,-0.354111,-0.310326,
0.664212,0.174463,-0.075390,

-0.007053,-0.305734,0.136698,
0.413104,-0.163798,-0.133822,
0.786098,0.508485,-0.037012,

-0.257137,-0.001764,0.009835,
-0.133287,-0.044557,0.050269,
-0.194139,-0.128437,0.022348,

-0.230926,0.010148,0.028388,
-0.191149,-0.149574,-0.088047,
-0.005266,-0.012307,-0.031345,

0.017891,-0.037797,-0.141922,
-0.110829,0.038481,-0.075617,
-0.182021,-0.206910,-0.062350,

0.233970,0.211378,0.422956,
0.109071,0.230267,0.179379,
0.215127,0.204218,0.167352,

-0.308795,-0.216169,-0.324093,
-0.638807,-0.519664,-0.702461,
-0.502766,-0.775858,-0.675905,

0.225259,0.497283,0.403305,
0.046362,0.372237,-0.027331,
-0.015373,0.147981,0.113995,

0.266280,0.635255,0.524570,
0.347037,0.049804,-0.166186,
-0.252857,-0.690720,-0.521415,

0.312935,0.473710,0.251943,
0.214391,0.029318,-0.266412,
-0.267060,-0.446423,-0.462636,

0.035480,0.216145,0.289093,
0.046150,0.120291,-0.027708,
-0.230951,-0.388254,-0.117539,

0.291444,0.316180,0.287648,
-0.280698,-0.491675,-0.569395,
-0.651678,-0.429041,0.003281,

0.575460,0.433364,0.247424,
0.342565,-0.159993,-0.212864,
0.116901,0.211833,0.324669,

0.335957,0.302096,0.125487,
-0.131767,-0.478942,-0.433533,
-0.349288,-0.085136,-0.114786,

0.266359,0.216323,0.182957,
0.109724,0.397658,0.289024,
0.159898,0.367711,0.217197,

-0.011289,-0.046185,-0.002225,
0.024508,-0.029041,0.057167,
-0.087100,-0.064497,-0.028405,

-0.197797,-0.242923,-0.112497,
-0.024312,-0.118858,-0.000977,
0.096525,0.075724,-0.004924,

-0.954274,-0.513291,0.043274,
-0.924911,-0.669015,-0.231920,
-0.537181,-0.213516,-0.201743,

-0.174309,0.093665,0.480687,
-0.028428,0.255425,0.391597,
0.244708,0.419355,0.492234,

-0.010782,0.076698,0.142438,
0.023590,0.180809,0.166899,
0.150482,0.261997,0.334631,

-0.258303,-0.321865,-0.233388,
-0.515604,-0.448536,-0.410239,
-0.311425,-0.525486,-0.381062,

0.195252,0.358713,0.203084,
0.197796,0.194889,0.263029,
-0.186730,-0.050116,-0.132876,

0.236702,0.607108,0.410271,
0.224486,0.669917,0.440564,
0.045459,0.156551,-0.004344,

-0.036107,-0.518292,-0.255877,
-0.537985,-1.147857,-0.794163,
0.301928,-0.543259,-0.790162,

0.104084,-0.021709,0.089778,
-0.240649,-0.475715,-0.174170,
0.575414,-0.070611,-0.185217,

0.002974,-0.501618,-0.049136,
-0.466791,-1.060683,-0.679070,
0.606831,-0.112974,-0.696190,

0.047659,-0.222335,-0.518047,
-0.300944,0.239400,-0.477409,
-0.264698,0.146361,0.150790,

0.420006,0.391083,0.168059,
0.116325,0.561992,0.021161,
-0.040028,0.651703,0.503016,

-0.092566,-0.143485,-0.091792,
-0.378733,-0.020883,-0.390293,
-0.376458,-0.148470,-0.266713,

-0.359597,-0.322171,0.287564,
-0.328313,-0.144841,0.550609,
0.137918,0.432296,0.552043,

-0.333078,-0.794139,0.018554,
-0.692862,-0.467101,0.257481,
-0.353826,0.034461,0.209437,

0.240802,-0.501222,0.137401,
-0.141512,-0.061607,0.478391,
-0.010525,0.394179,0.522845,

-0.116862,0.282450,-0.034139,
-0.267030,-0.262421,0.303478,
0.390765,-0.496672,-0.064635,

-0.038003,0.220716,0.162323,
-0.171872,-0.356786,0.532609,
0.588427,-0.516815,0.179443,

-0.367730,0.389626,0.238411,
-0.486220,-0.306625,0.396849,
0.301852,-0.667909,-0.147375,

0.390694,-0.059444,-0.524388,
0.428173,0.162591,-0.411080,
0.284524,0.469614,-0.182122,

-0.045198,-0.328824,-0.432229,
0.217046,0.040731,-0.529448,
0.137791,0.285139,-0.423828,

0.190566,-0.263678,-0.470361,
0.395609,0.109713,-0.415540,
0.319453,0.433228,-0.036327,

-0.302423,-0.085187,-0.443140,
-0.064675,-0.073274,-0.208311,
0.017981,-0.103715,-0.140091,

0.096127,0.284922,0.078257,
0.426208,0.413956,0.382541,
0.606646,0.562370,0.263678,

-0.730674,-0.464050,-0.080025,
-0.691614,-0.134494,0.175551,
-0.196173,0.007669,0.253581,

-0.432927,-0.428542,-0.281267,
0.283305,0.163018,-0.167209,
0.456301,0.424362,0.358710,

-0.534238,-0.559173,-0.178539,
-0.013360,0.041950,-0.102407,
0.271554,0.440280,0.387688,

-0.302094,-0.369532,0.017016,
0.150340,-0.151589,-0.207672,
0.340298,0.247372,0.157876,

-0.324807,0.094901,0.113329,
0.268074,-0.152825,0.124848,
-0.356972,-0.097382,0.290384,

-0.295102,-0.186563,-0.044716,
0.501317,-0.247744,-0.221729,
-0.263131,-0.112347,-0.020470,

-0.136391,0.084725,-0.048359,
1.020725,0.042469,-0.349424,
-0.084042,-0.109634,-0.138902,

-0.294860,-0.244695,-0.395586,
-0.169223,-0.143984,-0.264715,
-0.128880,0.061047,-0.033223,

0.283859,0.146242,-0.087294,
0.216325,0.284598,0.017815,
0.341100,0.281173,0.334302,

0.191087,-0.017607,0.126171,
0.181894,0.219219,0.188370,
0.144484,0.099291,0.154936,

0.629702,0.360538,0.405414,
0.279209,0.281728,0.040157,
-0.040055,0.006648,-0.055140,

0.511725,0.220632,0.024571,
-0.218613,-0.459274,-0.624230,
-0.659479,-0.910668,-0.885035,

0.191857,-0.091020,0.113141,
-0.196261,-0.535031,-0.418205,
-0.426650,-0.696162,-0.607006,

0.470474,-0.222474,-0.034723,
0.281446,-0.141670,-0.171893,
0.203851,-0.218320,-0.043156,

0.439034,-0.440242,-0.037413,
0.077345,-0.553948,-0.309157,
0.010185,-0.637272,-0.357437,

0.350579,-0.424981,-0.286446,
0.049739,-0.489641,-0.028419,
-0.217607,-0.551235,-0.310708,

0.438159,0.135643,-0.145549,
0.513581,-0.487039,-0.288872,
0.109063,-0.480619,0.197562,

0.211565,0.162333,-0.222932,
0.422343,-0.479258,-0.067623,
0.002107,-0.423050,0.215598,

0.359755,0.146118,-0.302152,
0.353395,-0.412452,-0.117590,
0.168402,-0.443787,0.240275,

0.184694,-0.211372,-0.286743,
-0.269748,-0.321764,-0.216482,
-0.352572,-0.267282,0.077926,

0.157804,0.033933,-0.293532,
-0.037450,-0.241345,-0.441930,
-0.369168,-0.147386,-0.067185,

0.637294,0.495167,-0.192271,
0.400208,0.096034,-0.199551,
0.040880,0.088099,0.359805,

0.294518,0.413685,-0.102550,
0.363110,0.029763,-0.214636,
0.167668,-0.297844,-0.416825,

0.192634,0.159975,-0.255978,
0.328897,-0.017145,-0.407568,
-0.067647,-0.167482,-0.294215,

0.353001,0.465160,-0.520690,
0.449106,0.085742,-0.658370,
0.201144,-0.284739,-0.370678,

-0.586875,-0.202323,-0.178228,
-0.010222,0.120464,-0.032671,
0.212612,-0.261517,-0.192821,

-0.539194,0.166773,0.295571,
0.418880,0.413086,0.248748,
0.596642,0.145034,0.060613,

-0.819755,0.058336,0.325713,
-0.277863,0.300054,0.121402,
-0.201773,-0.036740,-0.070435,

0.034722,0.297798,0.162803,
0.440801,0.565676,0.479515,
0.421107,0.642897,0.444523,

-0.146761,-0.214658,-0.057018,
-0.267221,-0.319314,-0.129108,
-0.199778,-0.234312,-0.140560,

-0.128389,-0.171319,-0.070153,
-0.326577,-0.243321,-0.268576,
-0.355361,-0.477389,-0.270800,

-0.360641,0.218704,0.418398,
-0.440651,-0.042350,0.204863,
-0.319411,-0.343751,-0.101868,

-0.405012,0.274932,0.535848,
-0.505737,0.140025,0.433189,
-0.221704,-0.203807,-0.015191,

-0.544831,0.176080,0.331406,
-0.884945,-0.237298,0.175063,
-0.614322,-0.722304,-0.075737,

-0.296168,0.503392,0.257850,
-0.696754,0.200167,0.455622,
-0.616263,-0.050653,0.309543,

-0.224843,0.350604,0.250878,
-0.557496,0.067001,0.217710,
-0.474731,-0.447223,0.089877,

-0.123521,0.504421,-0.103358,
-0.224147,0.283310,0.088100,
0.008972,-0.004217,0.067191,

-0.416927,-0.139378,0.306745,
-0.112706,0.470023,0.163633,
0.000302,0.279318,-0.780628,

-0.317413,-0.211224,0.234333,
-0.117424,0.574519,0.256175,
0.074255,0.540323,-0.642188,

-0.102579,-0.270751,0.101857,
-0.219377,0.235849,0.020102,
0.035963,0.297988,-0.590334,

-0.122072,-0.123585,-0.002501,
0.033144,-0.053043,-0.147740,
-0.174580,0.024023,-0.031978,

-0.051942,-0.062812,-0.035011,
0.044158,-0.148653,-0.047689,
0.013599,-0.125742,0.028115,

-0.066421,-0.190914,0.040091,
-0.000750,-0.079290,-0.192490,
-0.128165,-0.245000,0.063387,

0.006550,0.158386,0.720892,
-0.157433,-0.384397,0.109095,
0.046522,-0.258087,-0.514006,

-0.155391,0.192922,0.578793,
-0.503806,-0.467633,-0.001567,
-0.197602,-0.415104,-0.416320,

0.132018,0.128503,0.572573,
0.061397,-0.229965,0.112714,
0.519087,0.164888,-0.070318,

0.044185,-0.227808,-0.283930,
-0.200619,-0.205666,-0.201562,
-0.176084,-0.179578,-0.080872,

-0.058530,-0.392774,-0.251518,
-0.360329,-0.616707,-0.264387,
-0.012086,-0.289932,-0.075250,

0.223233,-0.309946,-0.188800,
0.223709,-0.171326,-0.417732,
0.279612,0.073814,0.199159
};

const float Layer_1_Bias[num_filters_layer1] = {-0.105996,
0.025554,
0.147580,
-0.069535,
0.115012,
-0.003195,
-0.206822,
-0.857164,
-0.139293,
0.034656,
0.215782,
0.038965,
-0.002737,
0.057430,
0.011567,
-0.077037,
0.022733,
-0.050833,
-0.435217,
-0.016273,
0.292757,
0.020281,
0.330493,
-0.239813,
-0.035085,
-0.062178,
-0.014854,
-0.045439,
0.050204,
-0.077439,
-0.182977,
0.080184,
};

#endif